{"learner":{"attributes":{"best_iteration":"99","best_ntree_limit":"100","scikit_learn":"{\"use_label_encoder\": null, \"n_estimators\": 100, \"objective\": \"binary:logistic\", \"max_depth\": null, \"max_leaves\": null, \"max_bin\": null, \"grow_policy\": null, \"learning_rate\": null, \"verbosity\": null, \"booster\": null, \"tree_method\": null, \"gamma\": null, \"min_child_weight\": null, \"max_delta_step\": null, \"subsample\": null, \"sampling_method\": null, \"colsample_bytree\": null, \"colsample_bylevel\": null, \"colsample_bynode\": null, \"reg_alpha\": null, \"reg_lambda\": null, \"scale_pos_weight\": 10.78960396039604, \"base_score\": null, \"missing\": NaN, \"num_parallel_tree\": null, \"random_state\": null, \"n_jobs\": null, \"monotone_constraints\": null, \"interaction_constraints\": null, \"importance_type\": null, \"gpu_id\": null, \"validate_parameters\": null, \"predictor\": null, \"enable_categorical\": false, \"feature_types\": null, \"max_cat_to_onehot\": null, \"max_cat_threshold\": null, \"eval_metric\": null, \"early_stopping_rounds\": null, \"callbacks\": null, \"classes_\": [0, 1], \"n_classes_\": 2, \"_estimator_type\": \"classifier\"}"},"feature_names":["hosp_days","admission_age","sbp","dbp","resp_rate","temperature","wbc","lymphocytes","eosinophils","rbc","rdw","platelet","so2","po2","pco2","baseexcess","lactate","bun","creatinine","aniongap","glucose","sodium","potassium","albumin","alp","ast","bilirubin_total","fibrinogen","ptt","gcs","height","weight","paps","papd","papm","cvp","race","nitrates","anticoagulants","Norepinephrine","Dopamine","Epinephrine","Phenylephrine","Vasopressin","crrt","congestive_heart_failure","cerebrovascular_disease","chronic_pulmonary_disease","liver_disease","renal_disease"],"feature_types":["float","int","float","float","float","float","float","float","float","float","float","float","float","float","float","float","float","float","float","float","float","float","float","float","float","float","float","float","float","float","float","float","float","float","float","float","int","int","int","int","int","int","int","int","int","int","int","int","int","int"],"gradient_booster":{"model":{"gbtree_model_param":{"num_parallel_tree":"1","num_trees":"100","size_leaf_vector":"0"},"tree_info":[0,0,0,0,0,0,0,0,0,0,0,0,0,0,0,0,0,0,0,0,0,0,0,0,0,0,0,0,0,0,0,0,0,0,0,0,0,0,0,0,0,0,0,0,0,0,0,0,0,0,0,0,0,0,0,0,0,0,0,0,0,0,0,0,0,0,0,0,0,0,0,0,0,0,0,0,0,0,0,0,0,0,0,0,0,0,0,0,0,0,0,0,0,0,0,0,0,0,0,0],"trees":[{"base_weights":[-5.6130614E-4,1.1252052E0,-8.6952406E-1,-1.967742E0,1.3978646E0,-1.3163472E0,6.421548E-1,1.9592918E0,9.2341065E-1,-4.0163308E-1,-1.6951517E0,1.424389E0,-7.340491E-2,1.9683442E0,8.757479E-1,-8.281947E-3,1.4376466E0,6.585951E-1,-9.164542E-1,-1.7511677E0,1.4054817E0,1.4974476E0,-1.3846154E0,-6.795152E-1,1.3135905E0,1.9775965E0,8.757479E-1,6.115493E-1,-1.4338019E0,-1.5789474E0,1.4909936E0,-7.353468E-1,1.1096615E0,3.9801064E-1,-1.328081E0,1.1886193E0,-1.7894607E0,-1E0,1.7800313E0,-1.2E0,1.5479101E0,-1.4109099E0,9.954334E-1,1.5061214E0,-1.3333334E0,1.0165936E0,-6.0245085E-1,-1.9398496E0,5.0981426E-1,1.5348784E0,-1.5E0,1.1886193E0,-1.8367347E0,-1.4285715E0,1.2545438E0,8.1899345E-1,-1.6923077E0,7.303203E-1,-1.6557686E0,-1E0,1.687246E0,8.087867E-1,-1.8283708E0,1.5910882E0,-1.1111112E0,3.5528606E-1,-1.9553072E0,-1.5E0,1.3881602E0,-1.2727273E0,1.693922E0],"categories":[],"categories_nodes":[],"categories_segments":[],"categories_sizes":[],"default_left":[1,1,1,0,1,1,1,1,1,1,1,1,1,1,0,1,1,1,1,1,1,1,0,1,1,0,0,1,1,0,1,1,1,1,1,1,1,0,0,0,1,1,1,1,0,0,0,0,0,0,0,0,0,0,0,0,0,0,0,0,0,0,0,0,0,0,0,0,0,0,0],"id":0,"left_children":[1,3,5,-1,7,9,11,13,15,17,19,21,23,25,-1,27,29,31,33,35,37,39,-1,41,43,-1,-1,45,47,-1,49,51,53,55,57,59,61,-1,-1,-1,63,65,67,69,-1,-1,-1,-1,-1,-1,-1,-1,-1,-1,-1,-1,-1,-1,-1,-1,-1,-1,-1,-1,-1,-1,-1,-1,-1,-1,-1],"loss_changes":[1.7070552E3,6.438248E2,6.6605347E2,0E0,1.8443188E2,2.6282202E2,1.2624484E2,1.4085693E0,1.8247238E2,1.2287677E2,9.580994E1,2.4178177E1,1.00634514E2,1.4616699E0,0E0,1.2142835E2,4.1845123E1,4.7220524E1,8.23442E1,6.160742E1,1.0872826E1,1.6212952E1,0E0,1.0335793E2,2.0569038E1,0E0,0E0,4.7714775E1,4.1949234E1,0E0,3.402069E1,4.169213E1,2.2444191E1,3.3795258E1,7.9035736E1,9.757223E0,5.4249146E1,0E0,0E0,0E0,1.3703857E1,5.6791443E1,2.7447025E1,2.0119392E1,0E0,0E0,0E0,0E0,0E0,0E0,0E0,0E0,0E0,0E0,0E0,0E0,0E0,0E0,0E0,0E0,0E0,0E0,0E0,0E0,0E0,0E0,0E0,0E0,0E0,0E0,0E0],"parents":[2147483647,0,0,1,1,2,2,4,4,5,5,6,6,7,7,8,8,9,9,10,10,11,11,12,12,13,13,15,15,16,16,17,17,18,18,19,19,20,20,21,21,23,23,24,24,27,27,28,28,30,30,31,31,32,32,33,33,34,34,35,35,36,36,40,40,41,41,42,42,43,43],"right_children":[2,4,6,-1,8,10,12,14,16,18,20,22,24,26,-1,28,30,32,34,36,38,40,-1,42,44,-1,-1,46,48,-1,50,52,54,56,58,60,62,-1,-1,-1,64,66,68,70,-1,-1,-1,-1,-1,-1,-1,-1,-1,-1,-1,-1,-1,-1,-1,-1,-1,-1,-1,-1,-1,-1,-1,-1,-1,-1,-1],"split_conditions":[5E-1,8.358032E0,1.5782812E1,-5.903226E-1,1.9887857E1,3.5472763E0,-3.46875E0,1.522E3,5E-1,4.0650003E-2,5.0924997E0,3.2664075E2,3.6234615E1,1.43241005E1,2.627244E-1,1.1228116E2,6.4166665E-1,1.2275E1,1.6339285E2,8.091448E0,6.10095E1,7.860081E0,-4.1538465E-1,8.05E1,2.105E0,5.93279E-1,2.627244E-1,6.255635E1,7.25E1,-4.7368425E-1,1.1615E2,1.2658333E2,4.375E-1,3.95E1,1.2685484E1,3.6709286E1,3.9779198E1,-3E-1,5.340094E-1,-3.6E-1,4.3500004E0,3.3863636E1,1.0918889E1,1.0089399E0,-4.0000004E-1,3.0497807E-1,-1.8073526E-1,-5.819549E-1,1.5294428E-1,4.6046352E-1,-4.5000002E-1,3.565858E-1,-5.5102044E-1,-4.2857146E-1,3.7636316E-1,2.4569805E-1,-5.0769234E-1,2.190961E-1,-4.967306E-1,-3E-1,5.061738E-1,2.4263601E-1,-5.4851127E-1,4.7732648E-1,-3.3333337E-1,1.0658582E-1,-5.865922E-1,-4.5000002E-1,4.164481E-1,-3.818182E-1,5.081766E-1],"split_indices":[37,33,19,0,32,23,15,25,41,8,16,27,34,34,0,2,18,19,13,34,24,33,0,1,7,0,0,3,1,0,31,27,26,25,34,5,3,0,0,0,23,14,6,7,0,0,0,0,0,0,0,0,0,0,0,0,0,0,0,0,0,0,0,0,0,0,0,0,0,0,0],"split_type":[0,0,0,0,0,0,0,0,0,0,0,0,0,0,0,0,0,0,0,0,0,0,0,0,0,0,0,0,0,0,0,0,0,0,0,0,0,0,0,0,0,0,0,0,0,0,0,0,0,0,0,0,0,0,0,0,0,0,0,0,0,0,0,0,0,0,0,0,0,0,0],"sum_hessian":[1.7430105E3,7.591782E2,9.8383234E2,6.1E1,6.981782E2,7.594752E2,2.2435706E2,3.1834592E2,3.798323E2,2.2301424E2,5.36461E2,1.0671164E2,1.17645424E2,3.1489853E2,3.447401E0,1.3543503E2,2.4439728E2,7.280322E1,1.5021101E2,5.2736884E2,9.092203E0,1.0446164E2,2.25E0,8.2224014E1,3.542141E1,3.114511E2,3.447401E0,9.479022E1,4.0644802E1,3.75E0,2.4064728E2,1.7644802E1,5.5158417E1,3.582921E1,1.14381805E2,6.394802E0,5.20974E2,1E0,8.092203E0,1.5E0,1.0296164E2,5.73422E1,2.4881807E1,3.342141E1,2E0,7.119802E1,2.3592203E1,3.225E1,8.394802E0,2.3764728E2,3E0,6.394802E0,1.125E1,2.5E0,5.2658417E1,3.0329208E1,5.5E0,1.5539604E1,9.88422E1,1E0,5.394802E0,7.394802E0,5.135792E2,1.0171164E2,1.25E0,1.3592203E1,4.375E1,3E0,2.1881807E1,1.75E0,3.1671412E1],"tree_param":{"num_deleted":"0","num_feature":"50","num_nodes":"71","size_leaf_vector":"0"}},{"base_weights":[-2.6185208E-3,8.484022E-1,-6.580456E-1,-1.526873E0,1.053356E0,-1.0240214E0,5.2855814E-1,1.5147232E0,6.784988E-1,-1.2271783E0,2.6362652E-1,8.801328E-1,-1.9931848E-1,1.5220983E0,6.822828E-1,-2.1862495E-1,9.884765E-1,-4.082688E-1,-1.3849462E0,-3.1136173E-1,1.2677563E0,-8.327282E-2,1.1477548E0,-1.0658417E0,1.0949085E0,1.5296478E0,6.822828E-1,6.5295124E-1,-1.6078975E0,5.187859E-1,1.2742494E0,-1.2372322E0,2.3891176E-1,-1.4478598E0,-3.118522E-1,-1.1228049E0,5.520626E-1,1.414986E0,-1.0960674E0,-1.5525347E0,9.0132856E-1,-1.3496484E0,1.2231749E0,5.7499534E-1,-1.6407254E0,-1.1338644E0,1.3090731E0,-1.676931E0,9.2728174E-1,-1.8512269E0,1.1727607E0,-6.225355E-1,9.065275E-1,1.3211104E0,-1.2110204E0,-1.6231233E0,6.8467426E-1,-1.0477861E0,7.661201E-1,-1.4658924E0,1.3112655E0,-1.5050045E0,7.2020644E-1,1.1824418E0,-1.6508404E0,1.1871512E0,-8.248967E-1,6.2199086E-1,1.5882922E0,1.2665827E0,-1.3351341E0,1.5031075E0,6.640172E-1,1.3244097E0,-1.3583951E0,2.6611882E-1,1.5054104E0],"categories":[],"categories_nodes":[],"categories_segments":[],"categories_sizes":[],"default_left":[1,1,1,0,1,1,1,1,1,1,1,1,1,1,0,1,1,1,1,1,1,1,1,1,1,0,0,1,1,1,1,1,1,1,1,1,1,1,0,0,1,0,1,1,0,0,1,0,0,0,0,0,0,0,0,0,0,0,0,0,0,0,0,0,0,0,0,0,0,0,0,0,0,0,0,0,0],"id":1,"left_children":[1,3,5,-1,7,9,11,13,15,17,19,21,23,25,-1,27,29,31,33,35,37,39,41,43,45,-1,-1,47,49,51,53,55,57,59,61,63,65,67,-1,-1,69,-1,71,73,-1,-1,75,-1,-1,-1,-1,-1,-1,-1,-1,-1,-1,-1,-1,-1,-1,-1,-1,-1,-1,-1,-1,-1,-1,-1,-1,-1,-1,-1,-1,-1,-1],"loss_changes":[9.130474E2,3.4832123E2,4.0212115E2,0E0,1.1246283E2,1.8529443E2,5.61254E1,7.624512E-1,1.01402374E2,7.836267E1,5.650324E1,3.815425E1,8.194147E1,7.947998E-1,0E0,1.15181946E2,3.566104E1,5.3998962E1,3.4101746E1,4.447731E1,1.3934551E1,4.9171474E1,2.3422668E1,4.2115814E1,1.5506859E1,0E0,0E0,3.902977E1,2.695263E1,4.6610554E1,2.111383E1,3.378012E1,3.950476E1,2.596283E1,3.755693E1,4.1634506E1,2.8086777E1,3.6755066E0,0E0,0E0,1.8359673E1,0E0,1.664647E1,1.928042E1,0E0,0E0,5.182686E0,0E0,0E0,0E0,0E0,0E0,0E0,0E0,0E0,0E0,0E0,0E0,0E0,0E0,0E0,0E0,0E0,0E0,0E0,0E0,0E0,0E0,0E0,0E0,0E0,0E0,0E0,0E0,0E0,0E0,0E0],"parents":[2147483647,0,0,1,1,2,2,4,4,5,5,6,6,7,7,8,8,9,9,10,10,11,11,12,12,13,13,15,15,16,16,17,17,18,18,19,19,20,20,21,21,22,22,23,23,24,24,27,27,28,28,29,29,30,30,31,31,32,32,33,33,34,34,35,35,36,36,37,37,40,40,42,42,43,43,46,46],"right_children":[2,4,6,-1,8,10,12,14,16,18,20,22,24,26,-1,28,30,32,34,36,38,40,42,44,46,-1,-1,48,50,52,54,56,58,60,62,64,66,68,-1,-1,70,-1,72,74,-1,-1,76,-1,-1,-1,-1,-1,-1,-1,-1,-1,-1,-1,-1,-1,-1,-1,-1,-1,-1,-1,-1,-1,-1,-1,-1,-1,-1,-1,-1,-1,-1],"split_conditions":[5E-1,8.358032E0,1.5730304E0,-4.580619E-1,1.9887857E1,3.6618183E0,1.2291667E0,1.522E3,1.846698E1,1.062575E0,3.3759262E1,5E-1,1.60875E1,1.43241005E1,2.0468485E-1,1.529375E2,1.63875E1,1.2841666E2,5E-1,1.4145E2,1.9365456E1,4.3833336E1,8.271672E0,1.3735588E2,1.4666965E1,4.5889437E-1,2.0468485E-1,1.1558319E1,2.3033333E1,4.75E1,1.0845E2,1.2456212E2,1.7686687E1,7.9E2,3.878611E1,8.982759E0,3.6537605E1,8.75E-1,-3.2882023E-1,-4.6576044E-1,1.2625E2,-4.0489453E-1,2.0941067E1,2.794889E2,-4.9221763E-1,-3.4015933E-1,1.2042143E2,-5.0307935E-1,2.7818453E-1,-5.553681E-1,3.5182822E-1,-1.8676066E-1,2.7195826E-1,3.9633313E-1,-3.633061E-1,-4.8693702E-1,2.0540228E-1,-3.1433585E-1,2.2983603E-1,-4.3976775E-1,3.9337966E-1,-4.5150137E-1,2.1606193E-1,3.5473257E-1,-4.9525213E-1,3.5614538E-1,-2.4746902E-1,1.8659726E-1,4.764877E-1,3.7997484E-1,-4.0054026E-1,4.509323E-1,1.9920518E-1,3.9732292E-1,-4.0751854E-1,7.983565E-2,4.5162314E-1],"split_indices":[37,33,18,0,32,16,0,25,33,7,34,38,35,34,0,13,19,20,48,21,6,25,33,13,10,0,0,33,19,25,31,2,4,25,28,34,5,26,0,0,11,0,33,27,0,0,20,0,0,0,0,0,0,0,0,0,0,0,0,0,0,0,0,0,0,0,0,0,0,0,0,0,0,0,0,0,0],"split_type":[0,0,0,0,0,0,0,0,0,0,0,0,0,0,0,0,0,0,0,0,0,0,0,0,0,0,0,0,0,0,0,0,0,0,0,0,0,0,0,0,0,0,0,0,0,0,0,0,0,0,0,0,0,0,0,0,0,0,0,0,0,0,0,0,0,0,0,0,0,0,0,0,0,0,0,0,0],"sum_hessian":[1.6349243E3,7.111967E2,9.2372766E2,5.597975E1,6.552169E2,7.060902E2,2.1763744E2,2.9235327E2,3.6286368E2,6.0990955E2,9.6180664E1,1.466124E2,7.102503E1,2.889647E2,3.3885903E0,9.325728E1,2.696064E2,9.910154E1,5.10808E2,6.1598083E1,3.4582584E1,3.202288E1,1.1458952E2,4.264764E1,2.8377392E1,2.8557608E2,3.3885903E0,5.76315E1,3.5625782E1,1.0305032E2,1.6655608E2,4.304901E1,5.605253E1,4.8218893E2,2.8619074E1,3.1600054E1,2.9998028E1,3.293278E1,1.6498029E0,1.2617588E1,1.940529E1,2.8638346E0,1.11725685E2,1.1065167E1,3.1582472E1,2.1112833E0,2.6266108E1,5.5323734E0,5.2099125E1,3.3066456E1,2.5593257E0,2.5978071E1,7.707225E1,1.6393346E2,2.622622E0,3.598017E1,7.0688376E0,1.6004566E1,4.0047962E1,4.7952365E2,2.6652873E0,1.3061061E1,1.5558013E1,5.658294E0,2.594176E1,2.06237E1,9.374329E0,6.729531E0,2.620325E1,1.7053774E1,2.3515174E0,7.332743E1,3.839826E1,8.20122E0,2.8639483E0,4.534425E0,2.1731684E1],"tree_param":{"num_deleted":"0","num_feature":"50","num_nodes":"77","size_leaf_vector":"0"}},{"base_weights":[-4.688046E-3,5.5956864E-1,-6.735629E-1,-1.3996587E0,6.974935E-1,1.3834798E-1,-9.577838E-1,1.3196367E0,3.709935E-1,-9.209223E-1,4.2485657E-1,-1.1421762E0,1.6658723E-1,1.3353707E0,-1.1150938E0,-4.7588935E-1,6.5647113E-1,-1.44022E0,1.0439465E0,-4.8054627E-1,6.670498E-1,1.6638814E-1,-1.2737997E0,-5.3177273E-1,1.0078628E0,3.1030524E-1,1.345955E0,5.330972E-1,-9.150076E-1,1.1416863E0,3.3245707E-1,5.11784E-1,1.2042905E0,-1.3959546E0,3.4711614E-1,-1.1905392E0,7.530205E-1,-1.4065601E0,1.4764138E0,6.050556E-1,-1.3222163E0,7.5927126E-1,-1.0056396E0,1.2231477E0,-1.1011401E0,1.3544552E0,5.420286E-1,-1.3270663E0,8.994082E-1,-1.5283008E0,-9.6828245E-2,2.3083998E-1,1.2161758E0,-5.3089523E-1,7.3516154E-1,8.3828855E-1,-1.1318839E0,8.082298E-1,-1.3077221E0,-1.1194005E0,1.0750593E0,-1.3469061E0,5.8802193E-1,1.3651235E0,-1.1410137E0,2.4340804E-1,-1.3814939E0,1.3144186E0,-6.9409835E-1],"categories":[],"categories_nodes":[],"categories_segments":[],"categories_sizes":[],"default_left":[1,1,1,0,1,1,1,1,1,1,1,1,1,1,0,1,1,0,1,1,1,1,1,1,1,0,1,1,1,1,1,0,0,0,1,0,1,0,0,1,1,1,1,1,0,0,0,0,0,0,0,0,0,0,0,0,0,0,0,0,0,0,0,0,0,0,0,0,0],"id":2,"left_children":[1,3,5,-1,7,9,11,13,15,17,19,21,23,25,-1,27,29,-1,31,33,35,37,39,41,43,-1,45,47,49,51,53,-1,-1,-1,55,-1,57,-1,-1,59,61,63,65,67,-1,-1,-1,-1,-1,-1,-1,-1,-1,-1,-1,-1,-1,-1,-1,-1,-1,-1,-1,-1,-1,-1,-1,-1,-1],"loss_changes":[5.465234E2,2.1322856E2,1.5303583E2,0E0,1.487034E2,5.2798733E1,1.0197015E2,1.1157837E1,1.17103615E2,3.9336987E1,3.0275375E1,7.287567E1,4.1684498E1,2.3081055E0,0E0,5.4704277E1,5.648694E1,0E0,9.452534E-2,2.2767529E1,1.8174755E1,8.334991E1,3.5680603E1,2.45769E1,1.592778E1,0E0,9.6310425E-1,2.6908207E1,4.2819283E1,9.5177E0,7.628502E1,0E0,0E0,0E0,1.2750991E1,0E0,1.2891514E1,0E0,0E0,9.566771E0,1.8436768E1,1.4245743E1,1.3905411E1,6.0943146E0,0E0,0E0,0E0,0E0,0E0,0E0,0E0,0E0,0E0,0E0,0E0,0E0,0E0,0E0,0E0,0E0,0E0,0E0,0E0,0E0,0E0,0E0,0E0,0E0,0E0],"parents":[2147483647,0,0,1,1,2,2,4,4,5,5,6,6,7,7,8,8,9,9,10,10,11,11,12,12,13,13,15,15,16,16,18,18,19,19,20,20,21,21,22,22,23,23,24,24,26,26,27,27,28,28,29,29,30,30,34,34,36,36,39,39,40,40,41,41,42,42,43,43],"right_children":[2,4,6,-1,8,10,12,14,16,18,20,22,24,26,-1,28,30,-1,32,34,36,38,40,42,44,-1,46,48,50,52,54,-1,-1,-1,56,-1,58,-1,-1,60,62,64,66,68,-1,-1,-1,-1,-1,-1,-1,-1,-1,-1,-1,-1,-1,-1,-1,-1,-1,-1,-1,-1,-1,-1,-1,-1,-1],"split_conditions":[1.82775E2,8.358032E0,5.2766666E-2,-4.1989762E-1,2.0402405E1,1.36875E1,5E-1,1.4362539E1,1.3816667E1,1.441E2,1.245E1,1.0510283E1,1.6422058E1,1.0166666E1,-3.3452815E-1,1.3656349E2,-5.138889E0,-4.3206602E-1,8.6354995E-1,3.7364166E1,8.455927E0,8.02081E0,-5.911111E0,9.88E1,-1.14375E0,9.309158E-2,1.522E3,6.9911665E-1,3.990934E1,5E-1,1.4350877E0,1.5353522E-1,3.6128718E-1,-4.187864E-1,3.333333E-1,-3.571618E-1,3.1999998E0,-4.2196804E-1,4.4292417E-1,3.2732835E0,5.2696E0,9.2499995E-1,5E-1,1.1037604E2,-3.3034205E-1,4.0633658E-1,1.626086E-1,-3.981199E-1,2.6982248E-1,-4.5849025E-1,-2.9048475E-2,6.9252E-2,3.6485276E-1,-1.5926857E-1,2.2054847E-1,2.5148657E-1,-3.3956516E-1,2.4246895E-1,-3.9231664E-1,-3.3582017E-1,3.225178E-1,-4.0407184E-1,1.7640659E-1,4.0953708E-1,-3.4230414E-1,7.302242E-2,-4.144482E-1,3.9432558E-1,-2.0822951E-1],"split_indices":[13,33,8,0,32,10,43,34,19,21,19,34,35,17,0,21,15,0,7,25,33,33,15,11,15,0,25,26,32,41,18,0,0,0,0,0,26,0,0,23,7,26,37,2,0,0,0,0,0,0,0,0,0,0,0,0,0,0,0,0,0,0,0,0,0,0,0,0,0],"split_type":[0,0,0,0,0,0,0,0,0,0,0,0,0,0,0,0,0,0,0,0,0,0,0,0,0,0,0,0,0,0,0,0,0,0,0,0,0,0,0,0,0,0,0,0,0,0,0,0,0,0,0,0,0,0,0,0,0,0,0,0,0,0,0,0,0,0,0,0,0],"sum_hessian":[1.4460635E3,7.84462E2,6.616015E2,5.0990604E1,7.334714E2,1.7168268E2,4.899188E2,2.5139615E2,4.8207523E2,3.6078846E1,1.3560384E2,4.208803E2,6.90385E1,2.5023062E2,1.1655368E0,1.21367065E2,3.6070816E2,2.8748013E1,7.330835E0,2.8410675E1,1.0719316E2,3.8441494E1,3.824388E2,3.79245E1,3.1114E1,2.8671966E0,2.4736342E2,3.6738026E1,8.4629036E1,1.434165E2,2.1729164E2,2.6679647E0,4.6628704E0,1.3164213E1,1.5246462E1,4.1732197E0,1.0301994E2,1.7434362E1,2.1007132E1,9.318744E0,3.7312006E2,1.0020766E1,2.7903734E1,2.8613226E1,2.5007741E0,2.4409766E2,3.2657611E0,5.612814E0,3.1125212E1,4.7874905E1,3.675413E1,1.1151888E1,1.3226462E2,6.901438E1,1.4827727E2,1.1770659E1,3.4758022E0,1.0092389E2,2.0960524E0,1.6999388E0,7.6188054E0,3.6865015E2,4.4698997E0,7.811812E0,2.2089543E0,6.5358934E0,2.1367842E1,2.7613123E1,1.0001035E0],"tree_param":{"num_deleted":"0","num_feature":"50","num_nodes":"69","size_leaf_vector":"0"}},{"base_weights":[-8.317278E-3,-6.0257864E-1,4.5587176E-1,3.935351E-1,-8.267909E-1,-1.2667261E0,5.545898E-1,-1.1905073E0,6.112776E-1,2.6337102E-1,-9.510842E-1,1.202525E0,3.066757E-1,1.2171999E0,2.1764475E-1,-1.2828518E0,1.1806308E0,-1.2094376E0,-5.80425E-1,2.3362634E-1,1.2138299E0,9.079088E-1,1.2933631E-2,-1.0597892E0,6.651202E-1,1.4869735E-1,1.2977108E0,5.958618E-1,-1.2433851E0,3.8441867E-1,-8.824231E-1,1.2250506E0,4.3423602E-1,-7.104647E-1,9.4851416E-1,-2.726867E-1,8.491732E-1,9.8876214E-1,-1.5057997E0,-3.481568E-1,1.0513614E0,-9.303127E-1,8.824808E-1,-8.1805176E-1,1.343492E0,6.7688036E-1,-1.2750202E0,-4.6419248E-1,1.0791821E0,-1.0404667E0,4.7714728E-1,1.2306318E0,4.366142E-1,8.4782815E-1,-2.1986823E0,9.774261E-1,-1.0579041E0,-5.6552696E-1,6.477399E-1,4.6010878E-2,1.0994552E0],"categories":[],"categories_nodes":[],"categories_segments":[],"categories_sizes":[],"default_left":[1,1,1,1,1,0,1,0,1,1,1,1,1,0,1,0,1,1,1,0,1,1,1,1,1,1,0,1,1,1,1,1,0,1,1,1,1,0,0,0,0,0,0,0,0,0,0,0,0,0,0,0,0,0,0,0,0,0,0,0,0],"id":3,"left_children":[1,3,5,7,9,-1,11,-1,13,15,17,19,21,-1,23,-1,25,27,29,-1,31,33,35,37,39,41,-1,43,45,47,49,51,-1,53,55,57,59,-1,-1,-1,-1,-1,-1,-1,-1,-1,-1,-1,-1,-1,-1,-1,-1,-1,-1,-1,-1,-1,-1,-1,-1],"loss_changes":[3.4572696E2,1.23083145E2,1.20364075E2,3.579306E1,6.1086945E1,0E0,1.06649796E2,0E0,2.1210361E1,6.779655E1,3.7913147E1,1.7321472E0,8.532582E1,0E0,3.2600533E1,0E0,3.4138985E0,1.5247009E1,4.9159172E1,0E0,1.0571594E0,1.1094879E1,7.8006195E1,1.5066879E1,1.6779205E1,4.1237082E0,0E0,6.431853E0,1.4996216E1,2.4460157E1,2.798053E1,2.4835205E-1,0E0,1.2191315E1,1.0032791E1,6.599331E1,1.6663136E1,0E0,0E0,0E0,0E0,0E0,0E0,0E0,0E0,0E0,0E0,0E0,0E0,0E0,0E0,0E0,0E0,0E0,0E0,0E0,0E0,0E0,0E0,0E0,0E0],"parents":[2147483647,0,0,1,1,2,2,3,3,4,4,6,6,8,8,9,9,10,10,11,11,12,12,14,14,16,16,17,17,18,18,20,20,21,21,22,22,23,23,24,24,25,25,27,27,28,28,29,29,30,30,31,31,33,33,34,34,35,35,36,36],"right_children":[2,4,6,8,10,-1,12,-1,14,16,18,20,22,-1,24,-1,26,28,30,-1,32,34,36,38,40,42,-1,44,46,48,50,52,-1,54,56,58,60,-1,-1,-1,-1,-1,-1,-1,-1,-1,-1,-1,-1,-1,-1,-1,-1,-1,-1,-1,-1,-1,-1,-1,-1],"split_conditions":[1.4133928E1,1.3523111E2,8.358032E0,8.16749E0,1.3725559E1,-3.8001785E-1,1.9995272E1,-3.571522E-1,1.826633E1,8.6561575E0,5E-1,3.55E0,-5.198052E0,3.6516E-1,2.1305872E1,-3.8485557E-1,6.3480773E0,9.8E1,6.25E-2,7.00879E-2,1.522E3,-9.891439E0,3.7041664E1,4.0857143E1,4.7E1,2.0408333E1,3.8931325E-1,2.37965E0,3.979187E1,1.99E1,1.8546925E0,3.7375E2,1.3027081E-1,1.2666666E1,6.583333E0,8.05E1,1.6534092E1,2.9662865E-1,-4.517399E-1,-1.04447044E-1,3.1540844E-1,-2.7909383E-1,2.6474425E-1,-2.4541554E-1,4.0304762E-1,2.0306411E-1,-3.825061E-1,-1.3925774E-1,3.2375467E-1,-3.1214002E-1,1.4314419E-1,3.6918956E-1,1.3098426E-1,2.5434846E-1,-6.596047E-1,2.9322785E-1,-3.1737125E-1,-1.696581E-1,1.9432198E-1,1.3803264E-2,3.2983658E-1],"split_indices":[19,13,33,33,34,0,32,0,32,33,41,22,15,0,33,0,35,27,0,0,25,15,34,3,25,6,0,7,3,17,18,11,0,10,0,1,35,0,0,0,0,0,0,0,0,0,0,0,0,0,0,0,0,0,0,0,0,0,0,0,0],"split_type":[0,0,0,0,0,0,0,0,0,0,0,0,0,0,0,0,0,0,0,0,0,0,0,0,0,0,0,0,0,0,0,0,0,0,0,0,0,0,0,0,0,0,0,0,0,0,0,0,0,0,0,0,0,0,0,0,0,0,0,0,0],"sum_hessian":[1.251321E3,5.4864276E2,7.0267834E2,1.00664185E2,4.4797855E2,3.7444916E1,6.652334E2,1.1625196E1,8.903899E1,4.5733788E1,4.0224478E2,1.8302867E2,4.8220474E2,3.4240334E1,5.4798653E1,1.6880236E1,2.885355E1,2.3569789E2,1.6654689E2,2.3607898E0,1.806679E2,1.575794E2,3.2462534E2,1.3860865E1,4.0937786E1,3.171373E0,2.5682177E1,4.044825E0,2.3165306E2,3.9637478E1,1.2690941E2,1.7754115E2,3.1267338E0,3.4531522E0,1.5412625E2,2.4247957E2,8.214577E1,2.260653E0,1.1600212E1,1.132529E1,2.96125E1,1.1752976E0,1.9960754E0,1.3664364E0,2.6783888E0,3.4239144E0,2.2822916E2,1.799255E1,2.164493E1,1.1390339E2,1.3006017E1,1.757363E2,1.8048633E0,1.8970659E0,1.5560863E0,1.5244244E2,1.6838026E0,1.8424597E2,5.823359E1,1.9797825E1,6.2347942E1],"tree_param":{"num_deleted":"0","num_feature":"50","num_nodes":"61","size_leaf_vector":"0"}},{"base_weights":[-6.349897E-3,4.1421908E-1,-5.274999E-1,-1.1696638E0,5.080244E-1,1.0394691E-1,-7.8094876E-1,1.1439263E0,2.786071E-1,-1.4317374E-1,9.47876E-1,-9.439085E-1,9.9948265E-2,1.162823E0,6.723624E-1,-3.4928015E-1,4.6938258E-1,-5.295659E-1,6.615502E-1,-1.1773032E0,1.0936763E0,1.3824162E-1,-1.0498704E0,-4.648204E-1,7.6154685E-1,3.2463732E-1,1.169461E0,9.8034626E-1,-2.3409978E-1,-8.364661E-1,2.1142235E-1,-5.0056506E-2,6.411144E-1,1.9388406E-1,-1.003437E0,9.455699E-1,-7.116069E-1,1.2032713E0,4.4697165E-2,-1.1366711E0,1.1715723E0,-1.170181E0,-4.563486E-1,5.40674E-1,-8.5296255E-1,9.316219E-1,-9.129698E-1,5.651719E-1,-1.1905798E0,5.8212435E-1,-1.5623128E0,5.4440945E-1,-1.0639784E0,4.4049826E-1,1.0628046E0,5.557623E-1,-1.3777393E0,-1.2104088E0,4.186842E-1,5.2706618E-2,1.161451E0,7.280608E-1,-1.278387E0,1.093083E-1,1.2938375E0,7.806669E-1,-8.7672293E-1,-1.2065766E0,7.733183E-1,-1.0103289E0,1.2185085E0,1.0355592E0,-9.2894965E-1,9.581824E-2,-1.3037713E0,1.0506624E0,-3.225151E-2],"categories":[],"categories_nodes":[],"categories_segments":[],"categories_sizes":[],"default_left":[1,1,1,0,1,1,1,1,1,1,1,1,1,1,1,1,1,1,1,0,1,1,1,1,1,0,0,0,0,1,1,1,1,1,1,1,1,1,1,0,0,1,1,1,1,1,0,0,0,0,0,0,0,0,0,0,0,0,0,0,0,0,0,0,0,0,0,0,0,0,0,0,0,0,0,0,0],"id":4,"left_children":[1,3,5,-1,7,9,11,13,15,17,19,21,23,25,27,29,31,33,35,-1,37,39,41,43,45,-1,-1,-1,-1,47,49,51,53,55,57,59,61,63,65,-1,-1,67,69,71,73,75,-1,-1,-1,-1,-1,-1,-1,-1,-1,-1,-1,-1,-1,-1,-1,-1,-1,-1,-1,-1,-1,-1,-1,-1,-1,-1,-1,-1,-1,-1,-1],"loss_changes":[2.3711969E2,8.9548256E1,7.740369E1,0E0,8.2243E1,2.917948E1,4.9602493E1,5.523224E-1,5.0139626E1,3.411506E1,1.1101892E1,3.35289E1,2.080945E1,4.1366577E-1,2.5018063E0,2.68917E1,2.8614265E1,2.5535624E1,1.4584498E1,0E0,3.4133873E0,3.6702446E1,1.8409485E1,1.2229795E1,8.138485E0,0E0,0E0,0E0,0E0,2.6745995E1,3.1330732E1,4.9123455E1,1.990924E1,1.7880936E1,1.3700691E1,5.7187347E0,6.384781E0,2.5601387E0,3.3233778E0,0E0,0E0,1.6490295E1,4.4237854E1,7.5152283E0,9.596443E0,2.756174E0,0E0,0E0,0E0,0E0,0E0,0E0,0E0,0E0,0E0,0E0,0E0,0E0,0E0,0E0,0E0,0E0,0E0,0E0,0E0,0E0,0E0,0E0,0E0,0E0,0E0,0E0,0E0,0E0,0E0,0E0,0E0],"parents":[2147483647,0,0,1,1,2,2,4,4,5,5,6,6,7,7,8,8,9,9,10,10,11,11,12,12,13,13,14,14,15,15,16,16,17,17,18,18,20,20,21,21,22,22,23,23,24,24,29,29,30,30,31,31,32,32,33,33,34,34,35,35,36,36,37,37,38,38,41,41,42,42,43,43,44,44,45,45],"right_children":[2,4,6,-1,8,10,12,14,16,18,20,22,24,26,28,30,32,34,36,-1,38,40,42,44,46,-1,-1,-1,-1,48,50,52,54,56,58,60,62,64,66,-1,-1,68,70,72,74,76,-1,-1,-1,-1,-1,-1,-1,-1,-1,-1,-1,-1,-1,-1,-1,-1,-1,-1,-1,-1,-1,-1,-1,-1,-1,-1,-1,-1,-1,-1,-1],"split_conditions":[1.82775E2,8.358032E0,5.2766666E-2,-3.5089916E-1,1.209714E1,1.4273334E2,5E-1,1.0840665E1,2.986824E1,5.510103E1,6.594E-1,1.0510283E1,1.6422058E1,2.8E1,6.303779E1,1.4392858E0,1.9587122E1,3.6634922E1,3.6219249E0,-3.5319096E-1,3.674652E1,8.02081E0,1.5225E1,9.88E1,-1.14375E0,9.73912E-2,3.508383E-1,2.941039E-1,-7.022993E-2,3.6816669E0,1.14111404E2,3.2243035E0,4.7225E0,1.3936667E2,2.0166667E0,1.125E0,9.863989E1,3.104857E0,1.0125E2,-3.4100133E-1,3.5147172E-1,2.3420834E1,5E-1,9.2499995E-1,1.2225E1,2.1425E0,-2.7389097E-1,1.6955158E-1,-3.5717395E-1,1.7463732E-1,-4.6869388E-1,1.6332284E-1,-3.1919354E-1,1.3214949E-1,3.188414E-1,1.6672869E-1,-4.1332182E-1,-3.6312264E-1,1.2560527E-1,1.5811985E-2,3.484353E-1,2.1841824E-1,-3.835161E-1,3.2792494E-2,3.881513E-1,2.3420008E-1,-2.6301688E-1,-3.61973E-1,2.319955E-1,-3.0309868E-1,3.6555254E-1,3.1066775E-1,-2.786849E-1,2.8745472E-2,-3.911314E-1,3.1519872E-1,-9.675453E-3],"split_indices":[13,33,8,0,34,21,43,34,25,28,7,34,35,1,3,18,33,14,23,0,5,33,19,11,15,0,0,0,0,22,2,23,22,21,18,18,2,9,2,0,0,6,46,26,19,7,0,0,0,0,0,0,0,0,0,0,0,0,0,0,0,0,0,0,0,0,0,0,0,0,0,0,0,0,0,0,0],"split_type":[0,0,0,0,0,0,0,0,0,0,0,0,0,0,0,0,0,0,0,0,0,0,0,0,0,0,0,0,0,0,0,0,0,0,0,0,0,0,0,0,0,0,0,0,0,0,0,0,0,0,0,0,0,0,0,0,0,0,0,0,0,0,0,0,0,0,0,0,0,0,0,0,0,0,0,0,0],"sum_hessian":[1.0798546E3,5.977082E2,4.8214642E2,3.277864E1,5.6492957E2,1.3826372E2,3.438827E2,1.4871982E2,4.1620975E2,1.0758953E2,3.0674189E1,2.9013773E2,5.3744972E1,1.4158047E2,7.139346E0,9.679702E1,3.1941272E2,7.291903E1,3.46705E1,1.5151185E0,2.915907E1,2.5848776E1,2.6428894E2,2.9154705E1,2.4590267E1,1.5045773E0,1.400759E2,5.267968E0,1.8713781E0,5.1530838E1,4.5266182E1,7.953895E1,2.3987378E2,2.9093458E1,4.3825573E1,2.8986425E1,5.684074E0,2.6267601E1,2.8914673E0,1.1526944E1,1.4321832E1,2.1893735E2,4.5351597E1,8.010438E0,2.1144268E1,2.2725737E1,1.8645298E0,1.027293E1,4.1257908E1,3.7996838E1,7.2693453E0,5.0432983E1,2.9105967E1,1.6392987E2,7.59439E1,2.4173666E1,4.9197927E0,3.838761E1,5.4379606E0,5.886126E0,2.31003E1,1.5252523E0,4.1588216E0,2.177095E0,2.4090508E1,1.6924258E0,1.1990415E0,2.1528491E2,3.652431E0,3.4377552E1,1.0974046E1,6.213458E0,1.7969797E0,7.064222E0,1.4080046E1,2.0147442E1,2.5782948E0],"tree_param":{"num_deleted":"0","num_feature":"50","num_nodes":"77","size_leaf_vector":"0"}},{"base_weights":[-1.0097211E-2,5.620214E-1,-3.007448E-1,-1.0911791E0,6.731665E-1,-6.660443E-1,7.209497E-2,7.87206E-1,-5.6498176E-3,2.9326385E-1,-7.756053E-1,-5.1136285E-1,2.6630738E-1,-8.835465E-1,8.261514E-1,-7.1977973E-1,7.092229E-1,-1.0930101E0,9.8158234E-1,-2.8875104E-1,-9.836825E-1,5.8816165E-1,-8.889026E-1,6.0082245E-1,2.440988E-3,4.4770396E-1,-1.2631092E0,1.0975996E0,6.7555094E-1,2.0925547E-1,-2.0941546E0,-6.412481E-1,9.1928303E-1,1.0989571E0,-1.577366E-1,-1.0725446E0,1.9597675E-1,9.4576E-1,-1.0182178E0,-9.5608765E-1,1.0730252E0,6.0931027E-1,-1.2635386E0,6.373873E-2,9.301835E-1,4.185713E-1,-4.5447502E-1,1.1083534E0,1.8000282E-1,7.218312E-1,-1.258943E0,-1.2947527E0,6.371944E-1,4.434097E-1,-1.3171281E0,-2.741784E-1,1.0474501E0,1.1496451E0,2.093207E-1,9.4550055E-1,-1.2461785E0,-8.117296E-1,6.053267E-1,-3.0198538E-1,-1.1048694E0,-9.1723907E-1,1.0674745E0,4.4933832E-1,-1.4313408E0,7.9293233E-1,-5.19928E-1,-1.2123257E0,1.0093256E0,-1.0650383E0,5.6777006E-1,-9.0617234E-1,6.967191E-1],"categories":[],"categories_nodes":[],"categories_segments":[],"categories_sizes":[],"default_left":[1,1,1,0,1,1,1,1,1,1,1,1,1,1,1,1,1,0,1,1,1,1,1,1,1,0,0,1,1,1,0,1,1,1,0,1,1,0,1,0,0,1,1,1,1,1,1,0,0,0,0,0,0,0,0,0,0,0,0,0,0,0,0,0,0,0,0,0,0,0,0,0,0,0,0,0,0],"id":5,"left_children":[1,3,5,-1,7,9,11,13,15,17,19,21,23,25,27,29,31,-1,33,35,37,39,41,43,45,-1,-1,47,49,51,-1,53,55,57,-1,59,61,-1,63,-1,-1,65,67,69,71,73,75,-1,-1,-1,-1,-1,-1,-1,-1,-1,-1,-1,-1,-1,-1,-1,-1,-1,-1,-1,-1,-1,-1,-1,-1,-1,-1,-1,-1,-1,-1],"loss_changes":[1.546269E2,5.8295837E1,8.402893E1,0E0,2.2775223E1,3.297235E1,3.4816948E1,1.711728E1,2.261654E1,3.223716E1,2.8069824E1,3.2393612E1,2.0324816E1,3.7084794E0,9.34079E0,2.8731043E1,6.8711042E0,0E0,3.1622696E0,3.258783E1,1.40012665E1,1.6170015E1,3.3071865E1,1.7902966E1,2.4858328E1,0E0,0E0,6.5309906E-1,1.5343018E1,9.919678E0,0E0,3.2010083E0,3.2812061E0,6.7876625E-1,0E0,1.2643066E1,2.2561054E1,0E0,1.1626495E1,0E0,0E0,9.502643E0,1.3969139E1,1.7297224E1,1.1883965E1,1.5749748E1,3.303636E1,0E0,0E0,0E0,0E0,0E0,0E0,0E0,0E0,0E0,0E0,0E0,0E0,0E0,0E0,0E0,0E0,0E0,0E0,0E0,0E0,0E0,0E0,0E0,0E0,0E0,0E0,0E0,0E0,0E0,0E0],"parents":[2147483647,0,0,1,1,2,2,4,4,5,5,6,6,7,7,8,8,9,9,10,10,11,11,12,12,13,13,14,14,15,15,16,16,18,18,19,19,20,20,21,21,22,22,23,23,24,24,27,27,28,28,29,29,31,31,32,32,33,33,35,35,36,36,38,38,41,41,42,42,43,43,44,44,45,45,46,46],"right_children":[2,4,6,-1,8,10,12,14,16,18,20,22,24,26,28,30,32,-1,34,36,38,40,42,44,46,-1,-1,48,50,52,-1,54,56,58,-1,60,62,-1,64,-1,-1,66,68,70,72,74,76,-1,-1,-1,-1,-1,-1,-1,-1,-1,-1,-1,-1,-1,-1,-1,-1,-1,-1,-1,-1,-1,-1,-1,-1,-1,-1,-1,-1,-1,-1],"split_conditions":[1.3557198E2,8.349168E0,1.4183333E1,-3.2735375E-1,4.2116666E0,1.986886E1,3.425833E1,6.45E-1,1.7864032E2,8.649891E0,3.417687E0,9.485062E0,3.6535713E1,2.7150002E1,1.9995272E1,2.235065E1,2.010892E1,-3.2790303E-1,1.4931815E0,5E-1,3.25E1,7.9328585E0,3.6221416E1,1.1898991E1,-2.9722223E0,1.343112E-1,-3.7893277E-1,3.8157144E0,3.0555556E0,1.4E1,-6.282464E-1,8.830555E0,-8.530994E0,7.047041E1,-4.732098E-2,9.8E1,1.2535715E2,2.83728E-1,1.3071428E1,-2.868263E-1,3.2190758E-1,1.715905E1,5.13E1,1.0274333E2,1.81E0,3.8198864E1,8.35E1,3.3250603E-1,5.400085E-2,2.1654937E-1,-3.776829E-1,-3.8842583E-1,1.9115832E-1,1.3302292E-1,-3.9513844E-1,-8.2253516E-2,3.1423503E-1,3.4489354E-1,6.279621E-2,2.836502E-1,-3.7385356E-1,-2.4351889E-1,1.8159802E-1,-9.059562E-2,-3.3146083E-1,-2.7517173E-1,3.2024235E-1,1.348015E-1,-4.2940226E-1,2.3787971E-1,-1.559784E-1,-3.636977E-1,3.027977E-1,-3.195115E-1,1.7033103E-1,-2.7185172E-1,2.0901574E-1],"split_indices":[13,33,19,0,9,32,28,18,20,33,23,34,14,28,32,33,4,0,7,41,1,33,5,35,15,0,0,18,15,10,0,6,15,3,0,27,20,0,29,0,0,19,31,2,16,14,1,0,0,0,0,0,0,0,0,0,0,0,0,0,0,0,0,0,0,0,0,0,0,0,0,0,0,0,0,0,0],"split_type":[0,0,0,0,0,0,0,0,0,0,0,0,0,0,0,0,0,0,0,0,0,0,0,0,0,0,0,0,0,0,0,0,0,0,0,0,0,0,0,0,0,0,0,0,0,0,0,0,0,0,0,0,0,0,0,0,0,0,0,0,0,0,0,0,0,0,0,0,0,0,0,0,0,0,0,0,0],"sum_hessian":[9.2787494E2,3.122668E2,6.1560815E2,1.911582E1,2.93151E2,3.1055115E2,3.05057E2,2.5084927E2,4.2301735E1,3.1660183E1,2.7889096E2,7.5775955E1,2.2928104E2,5.2201138E0,2.4562917E2,2.1158428E1,2.1143307E1,1.0309301E1,2.1350882E1,8.422078E1,1.9467018E2,1.9225851E1,5.6550106E1,1.0054223E2,1.2873882E2,1.11831E0,4.101804E0,8.540452E1,1.6022464E2,1.3130415E1,8.028012E0,2.5697522E0,1.8573555E1,1.9388834E1,1.9620476E0,3.1719084E1,5.2501698E1,2.9591825E0,1.91711E2,4.361852E0,1.4863998E1,1.1186716E1,4.536339E1,3.8672733E1,6.186949E1,6.742044E1,6.1318375E1,8.420973E1,1.1947845E0,1.5709325E2,3.1313903E0,2.459799E0,1.0670616E1,1.1185868E0,1.4511653E0,1.6907219E0,1.6882833E1,1.8067175E1,1.3216594E0,2.160737E0,2.9558346E1,1.4882392E1,3.7619305E1,2.1174526E1,1.7053647E2,2.351109E0,8.835608E0,3.8978183E0,4.1465572E1,1.7033588E1,2.1639145E1,1.6939219E0,6.017557E1,5.599681E0,6.1820763E1,4.419162E1,1.712675E1],"tree_param":{"num_deleted":"0","num_feature":"50","num_nodes":"77","size_leaf_vector":"0"}},{"base_weights":[-1.3671728E-2,-7.269955E-1,1.5742387E-1,1.3162763E0,-8.3780414E-1,5.2804565E-1,-8.033961E-2,1.5128632E0,4.7061998E-1,-9.384698E-1,4.374495E-1,-1.064142E0,6.14098E-1,-5.6561E-1,9.862603E-2,3.6923446E-2,-1.0650793E0,9.3818796E-1,-8.7695867E-1,1.0742592E0,4.5128357E-1,5.506575E-1,-8.731215E-1,1.8587808E-1,-8.4023255E-1,-9.7525567E-1,7.9488194E-1,5.3357774E-1,-1.1060487E0,2.0329121E-1,1.1377902E0,5.4331485E-2,6.922175E-1,-9.528618E-1,1.0442803E0,2.4705175E-1,-1.0960205E0,2.4435972E-1,-8.857825E-1,-1.0738816E0,7.1439356E-1,-1.8729137E-1,9.955412E-1,4.5681417E-1,-1.1443771E0,3.64296E-1,-1.5900025E0,7.466515E-1,-9.257537E-1,-9.2287725E-1,9.9246323E-1,-1.2074715E0,7.0651066E-1,-9.879292E-1,3.0559734E-1,-1.5069833E0,3.7383214E-1,-1.2880162E0,2.2997816E-1],"categories":[],"categories_nodes":[],"categories_segments":[],"categories_sizes":[],"default_left":[1,1,1,1,1,1,1,0,0,1,1,0,1,1,1,1,1,1,0,0,1,1,1,1,1,0,1,0,1,0,0,1,1,0,0,1,1,1,1,1,0,0,0,0,0,0,0,0,0,0,0,0,0,0,0,0,0,0,0],"id":6,"left_children":[1,3,5,7,9,11,13,-1,-1,15,17,-1,19,21,23,25,27,29,-1,-1,31,33,35,37,39,-1,41,-1,43,-1,-1,45,47,-1,-1,49,51,53,55,57,-1,-1,-1,-1,-1,-1,-1,-1,-1,-1,-1,-1,-1,-1,-1,-1,-1,-1,-1],"loss_changes":[9.758041E1,3.612211E1,5.6873505E1,6.7539597E-1,1.9323303E1,3.52045E1,3.425167E1,0E0,0E0,1.6941284E1,8.365928E0,0E0,1.748719E1,3.6948174E1,2.3790398E1,1.3580312E1,8.52655E0,1.0569396E0,0E0,0E0,1.7073364E1,1.8479528E1,2.1164028E1,1.6812061E1,9.744192E0,0E0,2.1759915E0,0E0,7.619461E0,0E0,0E0,3.5574883E1,1.0489304E1,0E0,0E0,1.3738502E1,1.4910606E1,1.930941E1,1.1454466E1,6.40637E0,0E0,0E0,0E0,0E0,0E0,0E0,0E0,0E0,0E0,0E0,0E0,0E0,0E0,0E0,0E0,0E0,0E0,0E0,0E0],"parents":[2147483647,0,0,1,1,2,2,3,3,4,4,5,5,6,6,9,9,10,10,12,12,13,13,14,14,15,15,16,16,17,17,20,20,21,21,22,22,23,23,24,24,26,26,28,28,31,31,32,32,35,35,36,36,37,37,38,38,39,39],"right_children":[2,4,6,8,10,12,14,-1,-1,16,18,-1,20,22,24,26,28,30,-1,-1,32,34,36,38,40,-1,42,-1,44,-1,-1,46,48,-1,-1,50,52,54,56,58,-1,-1,-1,-1,-1,-1,-1,-1,-1,-1,-1,-1,-1,-1,-1,-1,-1,-1,-1],"split_conditions":[1.2348484E1,3.9779198E1,1.3563191E2,9.651666E1,1.9991667E1,8.584724E0,3.4135418E1,4.5385897E-1,1.41186E-1,1.9550968E1,4.75E-1,-3.192426E-1,1.0840665E1,2.0106092E1,4.1084E0,8.16749E0,9.403818E1,3.0666668E1,-2.630876E-1,3.2227775E-1,5E-1,7.9705343E0,-4.3785715E0,3.15E0,3.271131E1,-2.925767E-1,2.0174469E2,1.6007333E-1,9.7E1,6.0987365E-2,3.4133708E-1,6.804167E1,3.7767403E1,-2.8585854E-1,3.132841E-1,7.45E1,3.0532173E1,1.3416667E0,7.05E1,3.728405E1,2.1431808E-1,-5.6187414E-2,2.9866236E-1,1.3704425E-1,-3.4331316E-1,1.09288804E-1,-4.7700077E-1,2.2399545E-1,-2.777261E-1,-2.768632E-1,2.9773897E-1,-3.6224145E-1,2.1195321E-1,-2.963788E-1,9.16792E-2,-4.52095E-1,1.1214965E-1,-3.8640487E-1,6.899345E-2],"split_indices":[19,3,13,12,6,33,28,0,0,32,26,0,34,32,23,33,2,17,0,0,39,33,15,26,33,0,27,0,27,0,0,3,5,0,0,1,33,16,1,5,0,0,0,0,0,0,0,0,0,0,0,0,0,0,0,0,0,0,0],"split_type":[0,0,0,0,0,0,0,0,0,0,0,0,0,0,0,0,0,0,0,0,0,0,0,0,0,0,0,0,0,0,0,0,0,0,0,0,0,0,0,0,0,0,0,0,0,0,0,0,0,0,0,0,0,0,0,0,0,0,0],"sum_hessian":[7.975965E2,1.536707E2,6.439258E2,7.3453937E0,1.463253E2,2.5117596E2,3.9274985E2,5.319749E0,2.025645E0,1.3586456E2,1.0460751E1,1.2296331E1,2.3887962E2,1.0523682E2,2.8751303E2,1.5690916E1,1.2017364E2,7.7822456E0,2.6785054E0,6.096806E1,1.7791158E2,2.2558544E1,8.267827E1,2.637991E2,2.3713934E1,6.595965E0,9.094951E0,2.7023413E0,1.174713E2,2.0933645E0,5.688881E0,6.766131E1,1.1025026E2,5.3457246E0,1.721282E1,1.3703469E1,6.89748E1,2.5088028E2,1.2918818E1,2.0884396E1,2.82954E0,1.5541966E0,7.5407543E0,2.550606E0,1.1492069E2,5.758477E1,1.0076539E1,1.071828E2,3.0674589E0,5.240456E0,8.463014E0,6.52693E1,3.7054958E0,1.1160668E1,2.3971962E2,8.520434E0,4.398384E0,1.7948793E1,2.9356012E0],"tree_param":{"num_deleted":"0","num_feature":"50","num_nodes":"59","size_leaf_vector":"0"}},{"base_weights":[-1.7589195E-2,-4.0069175E-1,2.2893316E-1,-1.3789983E-2,-6.6833866E-1,-1.0573753E0,2.831209E-1,-7.1794754E-1,1.1753196E-1,3.6545405E-1,-8.5226995E-1,1.0302074E0,1.2895168E-1,3.621103E-1,-1.1677842E0,-9.040268E-2,6.3184357E-1,1.0413182E0,-4.204142E-1,-9.586768E-1,1.23678826E-1,1.0512892E0,1.5589409E-1,5.3158545E-1,-4.4460993E-2,-7.451587E-1,9.41969E-1,4.5409346E-1,-5.334837E-1,8.4733033E-1,-1.0492893E0,1.0949891E0,2.1891935E-1,6.2922287E-1,-1.272117E0,-1.0765889E0,-5.6444623E-2,9.2170036E-1,-6.8913585E-1,1.0654281E0,2.286356E-1,-7.969724E-1,5.7800317E-1,-1.810048E-1,6.994853E-1,-2.6367748E-2,9.033859E-1,5.724926E-1,-1.034548E0,-2.1832465E-1,1.1700848E0,-6.50034E-2,8.309023E-1,-1.0912274E0,2.3961863E-1,-1.0354046E0,7.328411E-1,1.2524077E0,-1.3182253E-2,-1.1028804E0,6.896156E-1,6.0227007E-1,-1.5872238E0,3.8965183E-1,9.045128E-1,1.4497413E-1,-5.7832944E-1,-1.40782E0,9.380624E-1],"categories":[],"categories_nodes":[],"categories_segments":[],"categories_sizes":[],"default_left":[1,1,1,1,1,0,1,1,1,1,1,1,1,1,0,1,1,1,1,1,1,1,0,1,1,0,0,1,1,1,0,0,0,1,0,1,1,1,1,0,0,1,1,1,1,0,0,0,0,0,0,0,0,0,0,0,0,0,0,0,0,0,0,0,0,0,0,0,0],"id":7,"left_children":[1,3,5,7,9,-1,11,13,15,17,19,21,23,25,-1,27,29,31,33,35,37,39,-1,41,43,-1,-1,45,47,49,-1,-1,-1,51,-1,53,55,57,59,-1,-1,61,63,65,67,-1,-1,-1,-1,-1,-1,-1,-1,-1,-1,-1,-1,-1,-1,-1,-1,-1,-1,-1,-1,-1,-1,-1,-1],"loss_changes":[6.629957E1,2.8451797E1,3.007527E1,1.05711775E1,3.1198692E1,0E0,4.717157E1,9.151637E0,1.0370712E1,1.3841364E1,1.4470673E1,1.1284485E0,2.3874422E1,4.5837255E0,0E0,1.7021526E1,1.0992658E1,3.7182522E-1,1.1868411E1,1.3208603E1,1.0022714E1,5.506897E-1,0E0,6.8070164E0,2.4474054E1,0E0,0E0,6.876318E0,2.209705E1,8.948555E0,0E0,0E0,0E0,9.2417026E-1,0E0,2.385849E0,1.271382E1,2.4065819E0,5.1770034E0,0E0,0E0,5.2623305E0,5.7984085E0,2.6416344E1,2.0111145E1,0E0,0E0,0E0,0E0,0E0,0E0,0E0,0E0,0E0,0E0,0E0,0E0,0E0,0E0,0E0,0E0,0E0,0E0,0E0,0E0,0E0,0E0,0E0,0E0],"parents":[2147483647,0,0,1,1,2,2,3,3,4,4,6,6,7,7,8,8,9,9,10,10,11,11,12,12,13,13,15,15,16,16,17,17,18,18,19,19,20,20,21,21,23,23,24,24,27,27,28,28,29,29,33,33,35,35,36,36,37,37,38,38,41,41,42,42,43,43,44,44],"right_children":[2,4,6,8,10,-1,12,14,16,18,20,22,24,26,-1,28,30,32,34,36,38,40,-1,42,44,-1,-1,46,48,50,-1,-1,-1,52,-1,54,56,58,60,-1,-1,62,64,66,68,-1,-1,-1,-1,-1,-1,-1,-1,-1,-1,-1,-1,-1,-1,-1,-1,-1,-1,-1,-1,-1,-1,-1,-1],"split_conditions":[1.4133928E1,3.417687E0,8.358032E0,1.5183333E1,5E-1,-3.172126E-1,1.1043411E1,5.053846E1,1.885E0,1.4196428E1,1.6755047E0,1.522E3,-5.198052E0,4.9888096E1,-3.5033527E-1,1.03347755E2,2.2075E-1,4.65E1,2.0058952E2,3.269861E1,1.8671925E0,3.613333E2,4.6768226E-2,-9.891439E0,8.45E1,-2.2354761E-1,2.8259072E-1,1.3614583E0,1.3973641E1,3.5202778E1,-3.1478682E-1,3.2849672E-1,6.567581E-2,3.6333332E0,-3.8163513E-1,2.9499998E0,7.75E1,2E1,8.7E1,3.1962845E-1,6.859068E-2,1.2666666E1,7.55E1,7.609325E-2,1.6895832E1,-7.910325E-3,2.7101576E-1,1.7174779E-1,-3.1036443E-1,-6.54974E-2,3.5102546E-1,-1.9501021E-2,2.4927069E-1,-3.2736823E-1,7.188559E-2,-3.1062138E-1,2.1985233E-1,3.7572232E-1,-3.954676E-3,-3.3086413E-1,2.068847E-1,1.8068102E-1,-4.7616714E-1,1.1689556E-1,2.7135387E-1,4.349224E-2,-1.7349884E-1,-4.2234603E-1,2.8141874E-1],"split_indices":[19,23,33,17,37,0,34,3,7,29,18,25,15,3,0,2,8,14,27,34,18,11,0,15,1,0,0,18,34,32,0,0,0,23,0,26,1,25,1,0,0,10,1,8,4,0,0,0,0,0,0,0,0,0,0,0,0,0,0,0,0,0,0,0,0,0,0,0,0],"split_type":[0,0,0,0,0,0,0,0,0,0,0,0,0,0,0,0,0,0,0,0,0,0,0,0,0,0,0,0,0,0,0,0,0,0,0,0,0,0,0,0,0,0,0,0,0,0,0,0,0,0,0,0,0,0,0,0,0,0,0,0,0,0,0,0,0,0,0,0,0],"sum_hessian":[7.000324E2,2.7384473E2,4.2618768E2,1.124059E2,1.6143883E2,1.6479694E1,4.0970798E2,1.696599E1,9.543991E1,2.4235483E1,1.3720335E2,6.911282E1,3.4059515E2,5.0458713E0,1.1920118E1,6.85497E1,2.6890213E1,1.2854916E1,1.1380568E1,1.2373078E2,1.3472565E1,6.7287926E1,1.8248985E0,1.0191078E2,2.3868437E2,1.6362675E0,3.4096038E0,3.0743986E1,3.7805714E1,2.4274673E1,2.6155388E0,1.1756231E1,1.098685E0,5.2149234E0,6.165644E0,1.092586E2,1.4472183E1,6.7305493E0,6.742015E0,6.586086E1,1.4270627E0,2.8945332E0,9.901625E1,2.0230925E2,3.637512E1,1.5311545E1,1.543244E1,1.1743118E1,2.6062597E1,5.71819E0,1.8556482E1,1.3264999E0,3.8884234E0,1.08225876E2,1.0327233E0,6.32071E0,8.151473E0,4.72092E0,2.0096292E0,5.339724E0,1.4022908E0,1.1305765E0,1.7639568E0,6.4184166E1,3.4832085E1,1.1148126E2,9.082799E1,3.2009397E0,3.317418E1],"tree_param":{"num_deleted":"0","num_feature":"50","num_nodes":"69","size_leaf_vector":"0"}},{"base_weights":[-1.594524E-2,-6.885199E-1,9.699729E-2,-8.793725E-1,7.6496765E-2,3.9635813E-1,-8.09687E-2,1.0241693E0,-9.58977E-1,-1.0178754E0,3.776409E-1,-9.933259E-1,4.5815927E-1,-2.3738141E-1,3.098294E-1,1.8117177E-1,-1.0479239E0,8.144403E-1,-2.7621916E-1,1.025078E0,3.153549E-1,-3.7631318E-1,4.644568E-1,-9.724594E-1,4.0130866E-1,7.867479E-1,-7.4394876E-1,3.1890187E-1,-1.0965365E0,-6.0679503E-2,9.454278E-1,4.631553E-1,-8.7577254E-1,4.565033E-1,-3.4308532E-1,2.1149436E-1,-5.921906E-1,-9.0624064E-1,7.080987E-1,-1.3412393E0,5.2279294E-1,5.621656E-2,7.7003604E-1,2.1352787E-2,6.6769516E-1,-8.119908E-2,6.501124E-1,-1.0136122E0,3.6822554E-1,4.8419347E-1,-9.4859654E-1,1.9812459E-1,-7.8246635E-1,-1.4652013E0,6.7701733E-1,8.4517443E-1,-3.2414645E-1,-4.911964E-1,6.550556E-1,9.1254634E-1,-2.6327065E-1],"categories":[],"categories_nodes":[],"categories_segments":[],"categories_sizes":[],"default_left":[1,1,1,1,1,1,1,0,1,0,1,0,1,1,1,1,1,1,1,0,1,1,1,1,1,0,0,0,0,0,0,1,0,1,1,1,1,1,1,0,0,1,1,0,0,0,0,0,0,0,0,0,0,0,0,0,0,0,0,0,0],"id":8,"left_children":[1,3,5,7,9,11,13,-1,15,-1,17,-1,19,21,23,25,27,29,31,-1,33,35,37,39,41,-1,-1,-1,-1,-1,-1,43,-1,45,47,49,51,53,55,-1,-1,57,59,-1,-1,-1,-1,-1,-1,-1,-1,-1,-1,-1,-1,-1,-1,-1,-1,-1,-1],"loss_changes":[4.682414E1,1.3007084E1,2.815695E1,1.1742378E1,6.519322E0,1.7373768E1,2.0362043E1,0E0,7.1545143E0,0E0,4.602621E0,0E0,1.500145E1,2.3343277E1,1.1570013E1,3.8472762E0,4.592453E0,1.1397367E0,3.4578424E0,0E0,1.4343372E1,2.5364082E1,1.3903434E1,4.361844E0,1.1366535E1,0E0,0E0,0E0,0E0,0E0,0E0,3.2346272E-1,0E0,1.3183498E1,1.3497687E1,1.7593864E1,2.2070198E1,6.6840587E0,5.1242485E0,0E0,0E0,1.5859198E1,6.612173E0,0E0,0E0,0E0,0E0,0E0,0E0,0E0,0E0,0E0,0E0,0E0,0E0,0E0,0E0,0E0,0E0,0E0,0E0],"parents":[2147483647,0,0,1,1,2,2,3,3,4,4,5,5,6,6,8,8,10,10,12,12,13,13,14,14,15,15,16,16,17,17,18,18,20,20,21,21,22,22,23,23,24,24,31,31,33,33,34,34,35,35,36,36,37,37,38,38,41,41,42,42],"right_children":[2,4,6,8,10,12,14,-1,16,-1,18,-1,20,22,24,26,28,30,32,-1,34,36,38,40,42,-1,-1,-1,-1,-1,-1,44,-1,46,48,50,52,54,56,-1,-1,58,60,-1,-1,-1,-1,-1,-1,-1,-1,-1,-1,-1,-1,-1,-1,-1,-1,-1,-1],"split_conditions":[1.2190908E1,2.6702381E1,1.3563191E2,3.713889E1,1.6887238E1,8.584724E0,7.95E1,3.072508E-1,6.036E-1,-3.0536264E-1,1.05954544E2,-2.9799777E-1,1.0840665E1,2.7634815E1,4.45925E1,3.6431488E1,9.7E1,-3.8611112E0,3.513733E1,3.0752343E-1,4.2116666E0,5E-1,3.125E0,3.6285E2,8.983214E-1,2.3602436E-1,-2.2318463E-1,9.5670566E-2,-3.2896096E-1,-1.820385E-2,2.8362834E-1,9.682986E1,-2.6273176E-1,3.875E1,1.7864032E2,1.7554E0,3.8607693E0,2.1766666E2,2.4428573E0,-4.0237182E-1,1.5683788E-1,5E-1,4.7732143E1,6.4058364E-3,2.0030856E-1,-2.4359725E-2,1.9503373E-1,-3.0408365E-1,1.10467665E-1,1.4525805E-1,-2.8457898E-1,5.943738E-2,-2.3473991E-1,-4.3956038E-1,2.0310521E-1,2.5355235E-1,-9.724394E-2,-1.4735892E-1,1.9651668E-1,2.7376392E-1,-7.89812E-2],"split_indices":[19,17,13,3,4,33,1,0,7,0,2,0,34,33,24,5,27,15,14,0,9,36,16,13,26,0,0,0,0,0,0,12,0,25,20,7,22,24,18,0,0,39,32,0,0,0,0,0,0,0,0,0,0,0,0,0,0,0,0,0,0],"split_type":[0,0,0,0,0,0,0,0,0,0,0,0,0,0,0,0,0,0,0,0,0,0,0,0,0,0,0,0,0,0,0,0,0,0,0,0,0,0,0,0,0,0,0,0,0,0,0,0,0,0,0,0,0,0,0,0,0,0,0,0,0],"sum_hessian":[6.1453375E2,8.76256E1,5.2690814E2,7.00103E1,1.7615305E1,1.959943E2,3.3091385E2,2.3339517E0,6.7676346E1,3.2876825E0,1.4327623E1,7.703244E0,1.8829106E2,2.3660701E2,9.4306816E1,4.822556E0,6.2853794E1,8.442305E0,5.8853183E0,3.6643173E1,1.5164787E2,1.9789642E2,3.8710598E1,5.638605E0,8.866821E1,3.0050488E0,1.8175071E0,1.9677266E0,6.0886066E1,1.1690046E0,7.2733006E0,2.737235E0,3.148083E0,1.251306E2,2.6517282E1,5.3162308E1,1.447341E2,5.4318967E0,3.32787E1,4.6056876E0,1.0329175E0,4.6397366E1,4.2270847E1,1.2157123E0,1.5215229E0,3.328107E1,9.1849525E1,1.3431194E1,1.3086088E1,4.35158E1,9.646506E0,2.807648E1,1.1665762E2,4.069683E0,1.3622137E0,2.9537529E1,3.741173E0,2.433339E1,2.2063976E1,3.725028E1,5.0205684E0],"tree_param":{"num_deleted":"0","num_feature":"50","num_nodes":"61","size_leaf_vector":"0"}},{"base_weights":[-1.3762931E-2,-6.4460427E-1,7.784698E-2,-8.357556E-1,5.819204E-2,5.718192E-1,-1.7114278E-2,9.002078E-1,-9.195571E-1,-9.501138E-1,3.306778E-1,-1.0233053E0,9.797457E-1,-4.4433242E-1,1.0154273E-1,1.5302911E-1,-1.0116627E0,6.9800234E-1,-3.3529308E-1,1.013177E0,-1.5802114E-1,-9.5124376E-1,1.9798866E-1,-6.8869096E-1,1.8068604E-1,7.066027E-1,-6.805928E-1,2.6038307E-1,-1.0690511E0,-6.4298466E-2,8.0316E-1,-8.509085E-1,6.801099E-1,1.0288985E0,6.0061853E-2,5.5196464E-1,-1.1033036E0,-8.8476956E-1,5.915083E-1,1.3343814E-1,-1.2173803E0,2.631869E-1,-4.282445E-1,9.228784E-1,1.4868663E-1,-6.122859E-1,9.8380387E-1,4.874107E-1,-1.2122358E0,3.544287E-1,-1.1751456E0,8.00291E-1,-1.3626881E0,8.161129E-1,-6.136705E-1,3.5691354E-1,-1.3403043E0,1.6544488E-1,6.882097E-1,-8.3556575E-1,6.0112244E-1],"categories":[],"categories_nodes":[],"categories_segments":[],"categories_sizes":[],"default_left":[1,1,1,1,1,1,1,0,1,0,1,0,1,1,1,1,1,1,1,1,0,1,1,1,1,0,0,0,0,0,1,0,0,0,0,1,1,1,1,1,1,1,1,0,0,0,0,0,0,0,0,0,0,0,0,0,0,0,0,0,0],"id":9,"left_children":[1,3,5,7,9,11,13,-1,15,-1,17,-1,19,21,23,25,27,29,31,33,-1,35,37,39,41,-1,-1,-1,-1,-1,43,-1,-1,-1,-1,45,47,49,51,53,55,57,59,-1,-1,-1,-1,-1,-1,-1,-1,-1,-1,-1,-1,-1,-1,-1,-1,-1,-1],"loss_changes":[3.1928303E1,9.459705E0,2.2645512E1,8.849293E0,4.686652E0,5.1650826E1,2.0611856E1,0E0,5.4001274E0,0E0,3.4803581E0,0E0,2.5372887E0,2.8963753E1,2.0033936E1,2.819387E0,3.8574066E0,7.6327515E-1,3.4022624E0,8.499565E-1,0E0,1.1938923E1,1.7485641E1,1.284891E1,1.4689152E1,0E0,0E0,0E0,0E0,0E0,4.7983885E-1,0E0,0E0,0E0,0E0,3.226816E0,8.44862E0,4.3791275E0,1.3247841E1,6.7868876E0,3.9351711E0,1.05273E1,1.5177708E1,0E0,0E0,0E0,0E0,0E0,0E0,0E0,0E0,0E0,0E0,0E0,0E0,0E0,0E0,0E0,0E0,0E0,0E0],"parents":[2147483647,0,0,1,1,2,2,3,3,4,4,5,5,6,6,8,8,10,10,12,12,13,13,14,14,15,15,16,16,17,17,18,18,19,19,21,21,22,22,23,23,24,24,30,30,35,35,36,36,37,37,38,38,39,39,40,40,41,41,42,42],"right_children":[2,4,6,8,10,12,14,-1,16,-1,18,-1,20,22,24,26,28,30,32,34,-1,36,38,40,42,-1,-1,-1,-1,-1,44,-1,-1,-1,-1,46,48,50,52,54,56,58,60,-1,-1,-1,-1,-1,-1,-1,-1,-1,-1,-1,-1,-1,-1,-1,-1,-1,-1],"split_conditions":[1.2190908E1,2.6702381E1,1.2685484E1,3.713889E1,1.6887238E1,8.358032E0,3.3970833E1,2.7006236E-1,6.036E-1,-2.8503415E-1,5E-1,-3.069916E-1,6.049835E0,1.4966177E2,2.0380953E1,3.6431488E1,9.7E1,1.1316624E1,2.2587502E1,3.613333E2,-4.7406342E-2,9.25E0,2.4710236E2,3.684375E0,1.677E-1,2.1198082E-1,-2.0417784E-1,7.811493E-2,-3.2071537E-1,-1.928954E-2,1.7108334E1,-2.5527257E-1,2.0403299E-1,3.0866957E-1,1.8018557E-2,1.4041666E2,-2.0833334E-2,3.627143E0,2.9410715E2,1.64E2,3.6333334E-1,5E-1,4.385E0,2.7686352E-1,4.4605993E-2,-1.8368578E-1,2.9514116E-1,1.4622322E-1,-3.6367077E-1,1.06328614E-1,-3.525437E-1,2.4008732E-1,-4.0880644E-1,2.4483387E-1,-1.8410116E-1,1.0707407E-1,-4.020913E-1,4.9633466E-2,2.0646292E-1,-2.5066975E-1,1.8033674E-1],"split_indices":[19,17,34,3,4,33,28,0,7,0,37,0,26,20,34,5,27,32,6,11,0,17,27,22,8,0,0,0,0,0,10,0,0,0,0,21,0,22,11,30,7,46,9,0,0,0,0,0,0,0,0,0,0,0,0,0,0,0,0,0,0],"split_type":[0,0,0,0,0,0,0,0,0,0,0,0,0,0,0,0,0,0,0,0,0,0,0,0,0,0,0,0,0,0,0,0,0,0,0,0,0,0,0,0,0,0,0,0,0,0,0,0,0,0,0,0,0,0,0,0,0,0,0,0,0],"sum_hessian":[5.506074E2,6.905393E1,4.815535E2,5.413952E1,1.4914418E1,7.683732E1,4.0471616E2,2.0445325E0,5.2094986E1,2.643942E0,1.2270476E1,1.53408985E1,6.149642E1,8.737663E1,3.1733954E2,4.0674434E0,4.8027542E1,7.8774652E0,4.393011E0,5.984741E1,1.6490113E0,4.856714E1,3.8809494E1,2.8187717E1,2.8915182E2,2.5358567E0,1.5315865E0,1.9205362E0,4.6107006E1,1.002048E0,6.875417E0,3.0209768E0,1.3720343E0,5.879804E1,1.0493724E0,4.2199836E0,4.4347157E1,1.0012377E1,2.8797117E1,1.1324836E1,1.6862883E1,2.5515056E2,3.4001247E1,5.465535E0,1.4098821E0,1.0287066E0,3.191277E0,2.6195793E0,4.1727577E1,1.8588848E0,8.153492E0,2.6550941E1,2.246177E0,5.869336E0,5.4555E0,1.0834566E0,1.5779425E1,2.0857423E2,4.657633E1,2.4496313E1,9.504937E0],"tree_param":{"num_deleted":"0","num_feature":"50","num_nodes":"61","size_leaf_vector":"0"}},{"base_weights":[-1.591042E-2,-6.0144776E-1,5.826542E-2,7.705317E-1,-6.864291E-1,5.4688436E-1,-1.9202337E-2,-8.7958413E-1,-8.68716E-3,-8.712318E-1,9.8179203E-1,-1.2687598E-1,3.7929824E-1,-9.5976794E-1,3.0510482E-1,-9.0448105E-1,3.0453286E-1,-9.8845726E-1,3.354533E-1,1.0229238E0,3.5205713E-1,-2.2555293E-1,3.9694756E-1,-8.104193E-1,5.1688635E-1,3.3474034E-1,-1.0467006E0,4.3953386E-1,6.106884E-2,4.8919278E-1,-6.457434E-1,-2.0272127E-1,-1.0360322E0,7.273961E-1,-4.4975108E-1,-3.7835896E-1,2.3923802E-1,7.8573656E-1,-1.286131E-1,-1.2664417E0,4.2047292E-1,2.6367372E-1,9.7130805E-1,6.858235E-1,-3.3601272E-1,-5.21336E-1,2.0226596E-1,3.187749E-1,-1.3248558E0,9.9363434E-1,-1.2731048E0,-1.2663071E0,4.573279E-1,3.955977E-1,-1.6146209E0,1.1394411E0,3.4897524E-1],"categories":[],"categories_nodes":[],"categories_segments":[],"categories_sizes":[],"default_left":[1,1,1,0,1,1,1,1,1,1,1,1,1,1,1,0,1,1,0,0,1,1,1,1,1,0,0,0,0,1,0,0,0,0,0,1,1,1,1,0,0,1,1,0,0,0,0,0,0,0,0,0,0,0,0,0,0],"id":10,"left_children":[1,3,5,-1,7,9,11,13,15,17,19,21,23,25,27,-1,29,31,-1,-1,33,35,37,39,41,-1,-1,-1,-1,43,-1,-1,-1,-1,-1,45,47,49,51,-1,-1,53,55,-1,-1,-1,-1,-1,-1,-1,-1,-1,-1,-1,-1,-1,-1],"loss_changes":[2.145578E1,7.0046177E0,1.6614458E1,0E0,6.9083652E0,3.789891E1,1.6335562E1,4.197361E0,3.8464448E0,2.4005766E0,8.42659E-1,1.5575262E1,1.36774025E1,4.709854E0,8.3530486E-2,0E0,2.101918E0,2.9779625E-1,0E0,0E0,1.6428485E0,1.8040808E1,9.878935E0,5.463969E0,8.168007E0,0E0,0E0,0E0,0E0,1.7055588E0,0E0,0E0,0E0,0E0,0E0,1.5927818E1,8.277836E0,1.3098316E1,1.4716006E1,0E0,0E0,1.2628635E1,2.3045235E0,0E0,0E0,0E0,0E0,0E0,0E0,0E0,0E0,0E0,0E0,0E0,0E0,0E0,0E0],"parents":[2147483647,0,0,1,1,2,2,4,4,5,5,6,6,7,7,8,8,9,9,10,10,11,11,12,12,13,13,14,14,16,16,17,17,20,20,21,21,22,22,23,23,24,24,29,29,35,35,36,36,37,37,38,38,41,41,42,42],"right_children":[2,4,6,-1,8,10,12,14,16,18,20,22,24,26,28,-1,30,32,-1,-1,34,36,38,40,42,-1,-1,-1,-1,44,-1,-1,-1,-1,-1,46,48,50,52,-1,-1,54,56,-1,-1,-1,-1,-1,-1,-1,-1,-1,-1,-1,-1,-1,-1],"split_conditions":[1.2190908E1,3.892362E1,1.2685484E1,2.3115952E-1,2.6702381E1,8.553804E0,4.7309523E0,7.722143E1,1.7344212E1,2.4412498E1,2.9775E2,1.9701754E1,1.7107143E1,1.51E2,3.7940475E1,-2.7134433E-1,2.8470917E0,7.125E-1,1.00636E-1,3.0687717E-1,8.720007E0,8.05E1,1.02712265E2,5.3333335E0,3.7062035E1,1.0042211E-1,-3.140102E-1,1.3186017E-1,1.8320654E-2,1.134491E2,-1.9372304E-1,-6.081638E-2,-3.1080967E-1,2.1821883E-1,-1.3492534E-1,5E-1,8.95E1,3.6974613E1,3.4546524E1,-3.7993252E-1,1.2614188E-1,4.4483333E0,3.9714287E1,2.0574705E-1,-1.0080382E-1,-1.5640081E-1,6.067979E-2,9.563248E-2,-3.9745677E-1,2.980903E-1,-3.8193145E-1,-3.7989214E-1,1.3719837E-1,1.18679315E-1,-4.843863E-1,3.4183234E-1,1.0469258E-1],"split_indices":[19,3,34,0,17,33,22,28,4,6,11,35,33,30,14,0,16,18,0,0,34,1,2,22,5,0,0,0,0,2,0,0,0,0,0,46,1,5,34,0,0,9,14,0,0,0,0,0,0,0,0,0,0,0,0,0,0],"split_type":[0,0,0,0,0,0,0,0,0,0,0,0,0,0,0,0,0,0,0,0,0,0,0,0,0,0,0,0,0,0,0,0,0,0,0,0,0,0,0,0,0,0,0,0,0,0,0,0,0,0,0,0,0,0,0,0,0],"sum_hessian":[4.9219345E2,5.4541267E1,4.376522E2,2.7107382E0,5.183053E1,5.906254E1,3.7858966E2,4.0103344E1,1.1727183E1,1.3626607E1,4.5435932E1,2.9859247E2,7.999716E1,3.77389E1,2.3644428E0,2.5491252E0,9.178059E0,1.2584877E1,1.0417304E0,4.2064102E1,3.3718295E0,2.5173962E2,4.6852856E1,7.7855678E0,7.221159E1,2.1954868E0,3.5543415E1,1.0080487E0,1.356394E0,8.091005E0,1.0870533E0,1.0188527E0,1.1566024E1,2.3599198E0,1.0119098E0,1.8959409E2,6.2145546E1,2.6646088E1,2.0206768E1,5.659827E0,2.1257405E0,4.738692E1,2.4824677E1,6.6704664E0,1.4205389E0,1.5221397E2,3.73801E1,5.9895924E1,2.24962E0,2.4672125E1,1.9739614E0,6.474461E0,1.37323065E1,4.5014652E1,2.3722658E0,1.8890253E1,5.934423E0],"tree_param":{"num_deleted":"0","num_feature":"50","num_nodes":"57","size_leaf_vector":"0"}},{"base_weights":[-1.2369597E-2,1.7076394E-1,-2.2097479E-1,8.2651764E-2,7.975756E-1,-4.8172858E-1,8.561446E-2,-1.4523931E-1,2.9165712E-1,9.0727437E-1,-1.0351282E0,4.817997E-1,-6.0135007E-1,-7.3895395E-1,2.798498E-1,1.2028941E-1,-6.2738276E-1,6.913923E-1,1.1490721E-1,1.0116824E0,-4.5248345E-1,1.0310104E0,-6.039486E-1,5.3611004E-1,-6.700898E-1,2.356891E-1,-1.2769344E0,3.792714E-1,-1.0757209E0,-1.1073228E0,2.6770478E-1,-8.638529E-1,8.213026E-1,-1.4484037E-2,8.930998E-1,-5.64877E-1,2.7826905E-1,2.0993259E-2,1.0807585E0,-1.0987671E-1,1.1993809E0,7.496993E-2,-7.904745E-1,9.328792E-1,-3.3543286E-1,-1.9249056E-1,-8.570717E-1,-8.005698E-1,7.656159E-1,-2.0483397E-1,-1.3681611E0,-1.4229381E-1,6.1692065E-1,4.7838017E-1,-1.5559353E0,2.5683582E-1,-1.4735729E0,5.7931477E-1,-1.0653566E-1,8.663691E-2,-1.2242311E0,3.4256312E-1,-1.1733747E0,-1.2847607E-1,9.852029E-1,4.4450763E-1,-1.260246E0,7.975702E-1,5.752092E-2,2.7025467E-1,1.1113961E0,2.0412675E-1,-1.0409658E0,-1.0496302E0,1.347679E-1,1.5365453E-1,8.8543606E-1,8.887137E-1,-5.530038E-1,1.1825913E0,3.3033106E-1],"categories":[],"categories_nodes":[],"categories_segments":[],"categories_sizes":[],"default_left":[1,1,1,1,1,1,1,1,1,1,0,1,1,1,1,1,1,1,1,1,0,1,1,1,1,1,1,1,1,1,1,1,0,1,1,1,1,0,1,0,0,0,0,0,0,1,1,0,1,0,0,1,1,0,0,0,0,0,0,0,0,0,0,0,0,0,0,0,0,0,0,0,0,0,0,0,0,0,0,0,0],"id":11,"left_children":[1,3,5,7,9,11,13,15,17,19,-1,21,23,25,27,29,31,33,35,37,-1,39,41,43,45,47,49,51,53,55,57,59,-1,61,63,65,67,-1,69,-1,-1,-1,-1,-1,-1,71,73,-1,75,-1,-1,77,79,-1,-1,-1,-1,-1,-1,-1,-1,-1,-1,-1,-1,-1,-1,-1,-1,-1,-1,-1,-1,-1,-1,-1,-1,-1,-1,-1,-1],"loss_changes":[1.720744E1,1.3183406E1,1.6872974E1,1.0113539E1,6.860073E0,1.3420847E1,1.5840983E1,1.3110708E1,7.7365274E0,4.4783974E0,0E0,8.456425E0,8.318089E0,1.0203198E1,1.1153529E1,1.2330584E1,1.3152047E1,4.8137302E0,8.80876E0,1.7983036E0,0E0,1.878582E0,6.979623E-1,2.5109801E0,8.446793E0,4.7649317E0,9.251194E-1,9.386716E0,5.0047946E0,4.0376673E0,7.0790915E0,1.0968473E1,0E0,3.909875E0,2.5955334E0,1.1386652E1,7.2313476E0,0E0,3.1685257E-1,0E0,0E0,0E0,0E0,0E0,0E0,9.776919E0,1.3321903E1,0E0,2.6824927E-1,0E0,0E0,1.077945E1,7.9949265E0,0E0,0E0,0E0,0E0,0E0,0E0,0E0,0E0,0E0,0E0,0E0,0E0,0E0,0E0,0E0,0E0,0E0,0E0,0E0,0E0,0E0,0E0,0E0,0E0,0E0,0E0,0E0,0E0],"parents":[2147483647,0,0,1,1,2,2,3,3,4,4,5,5,6,6,7,7,8,8,9,9,11,11,12,12,13,13,14,14,15,15,16,16,17,17,18,18,19,19,21,21,22,22,23,23,24,24,25,25,26,26,27,27,28,28,29,29,30,30,31,31,33,33,34,34,35,35,36,36,38,38,45,45,46,46,48,48,51,51,52,52],"right_children":[2,4,6,8,10,12,14,16,18,20,-1,22,24,26,28,30,32,34,36,38,-1,40,42,44,46,48,50,52,54,56,58,60,-1,62,64,66,68,-1,70,-1,-1,-1,-1,-1,-1,72,74,-1,76,-1,-1,78,80,-1,-1,-1,-1,-1,-1,-1,-1,-1,-1,-1,-1,-1,-1,-1,-1,-1,-1,-1,-1,-1,-1,-1,-1,-1,-1,-1,-1],"split_conditions":[7.054418E-2,1.34875E2,1.5238636E1,4.326389E0,1.71445E0,6.433736E0,2.8976917E1,3.5028749E0,9.500093E1,9.6977585E1,-3.1053847E-1,1.655E2,3.9698555E1,1.6416668E1,2.60425E2,5.35E1,1.4441666E2,1.3979797E0,1.3825E1,1.825E1,-1.3574503E-1,6.125E0,2.0833334E-1,5E-1,1.4585714E1,2.8737645E0,9.988702E0,1.44155E0,8.579491E0,1.9647884E1,1.6692E2,3.637574E1,2.4639079E-1,4.048095E0,9.044765E1,3.6692966E1,-5.7207794E0,6.297978E-3,8.886507E0,-3.2963015E-2,3.598143E-1,2.249098E-2,-2.3714235E-1,2.7986377E-1,-1.0062986E-1,1.5970476E0,3.2151E0,-2.4017094E-1,5.04125E1,-6.1450195E-2,-4.1044834E-1,9.963333E1,1.0518749E1,1.4351405E-1,-4.667806E-1,7.7050745E-2,-4.4207188E-1,1.7379443E-1,-3.19607E-2,2.5991073E-2,-3.6726934E-1,1.0276894E-1,-3.520124E-1,-3.8542822E-2,2.955609E-1,1.333523E-1,-3.7807384E-1,2.3927107E-1,1.7256277E-2,8.1076406E-2,3.3341885E-1,6.1238024E-2,-3.1228974E-1,-3.1488907E-1,4.0430374E-2,4.6096362E-2,2.6563084E-1,2.6661414E-1,-1.6590114E-1,3.547774E-1,9.909932E-2],"split_indices":[8,24,19,22,7,35,25,23,12,12,0,13,3,25,11,1,21,18,10,17,0,35,0,49,29,16,33,7,34,32,30,5,0,9,12,14,15,0,33,0,0,0,0,0,0,7,7,0,28,0,0,20,6,0,0,0,0,0,0,0,0,0,0,0,0,0,0,0,0,0,0,0,0,0,0,0,0,0,0,0,0],"split_type":[0,0,0,0,0,0,0,0,0,0,0,0,0,0,0,0,0,0,0,0,0,0,0,0,0,0,0,0,0,0,0,0,0,0,0,0,0,0,0,0,0,0,0,0,0,0,0,0,0,0,0,0,0,0,0,0,0,0,0,0,0,0,0,0,0,0,0,0,0,0,0,0,0,0,0,0,0,0,0,0,0],"sum_hessian":[4.4843802E2,2.3889479E2,2.0954323E2,2.1044409E2,2.8450691E1,1.12927376E2,9.661585E1,1.00819565E2,1.0962453E2,2.732035E1,1.1303409E0,1.2137158E1,1.0079022E2,1.7885187E1,7.873067E1,6.549842E1,3.5321144E1,3.2718075E1,7.6906456E1,2.5609896E1,1.7104543E0,8.093559E0,4.043599E0,5.3564286E0,9.543379E1,6.5608997E0,1.1324286E1,7.40219E1,4.708772E0,6.3239217E0,5.9174503E1,3.071174E1,4.6094046E0,7.4777713E0,2.5240305E1,1.44246235E1,6.248183E1,1.754257E0,2.385564E1,1.0855088E0,7.0080504E0,1.0004014E0,3.0431979E0,3.6324034E0,1.7240252E0,2.7421581E1,6.8012215E1,2.0471096E0,4.5137906E0,1.1425313E0,1.0181755E1,2.3295925E1,5.0725967E1,1.1124402E0,3.596332E0,1.4017214E0,4.9222007E0,3.1990091E1,2.7184412E1,8.651964E0,2.2059776E1,6.255037E0,1.2227346E0,2.0547545E0,2.3185549E1,6.0309587E0,8.393665E0,1.7858168E1,4.4623665E1,1.2266318E0,2.2629007E1,1.92041E1,8.217482E0,5.6906048E1,1.1106164E1,1.112788E0,3.4010024E0,6.3048863E0,1.699104E1,1.6006298E1,3.471967E1],"tree_param":{"num_deleted":"0","num_feature":"50","num_nodes":"81","size_leaf_vector":"0"}},{"base_weights":[-1.2703683E-2,4.660447E-1,-8.9839496E-2,-9.619589E-1,8.178245E-1,-7.6523083E-1,-1.9248001E-2,9.7185385E-1,2.945181E-1,7.588133E-2,-9.7416586E-1,-8.137703E-2,6.038833E-1,1.0033166E0,-2.9223753E-2,7.6412666E-1,-7.9285336E-1,-9.0141886E-1,6.1337274E-1,-1.0874997E0,4.0722075E-1,2.8251174E-1,-1.9187455E-1,-6.561242E-1,7.454651E-1,-9.246687E-2,9.1313344E-1,1.23922065E-1,-1.3599647E0,8.5057265E-1,-2.0178747E-1,2.4782643E-1,-1.1534822E0,2.6745724E-2,6.143425E-1,-3.259108E-1,2.466372E-1,-1.668383E0,6.401915E-1,8.6049753E-1,-4.737865E-1,-1.5261263E0,1.4635353E-1,-2.3488839E-1,7.990272E-1,1.8971835E-1,-4.5368925E-1,5.143304E-1,-1.0534191E0,9.3945885E-1,-1.1876247E-1],"categories":[],"categories_nodes":[],"categories_segments":[],"categories_sizes":[],"default_left":[1,1,1,0,1,1,1,1,1,1,1,1,1,0,0,1,1,0,1,1,0,1,1,1,1,0,0,0,0,0,0,0,0,1,1,1,1,0,0,1,0,0,0,0,0,0,0,0,0,0,0],"id":12,"left_children":[1,3,5,-1,7,9,11,13,15,17,19,21,23,-1,-1,25,27,-1,29,31,-1,33,35,37,39,-1,-1,-1,-1,-1,-1,-1,-1,41,43,45,47,-1,-1,49,-1,-1,-1,-1,-1,-1,-1,-1,-1,-1,-1],"loss_changes":[1.5115617E1,2.932101E1,1.6785807E1,0E0,3.4309063E0,5.929476E0,1.2440254E1,1.1378212E0,6.693557E0,4.522845E0,4.6326866E0,1.17922125E1,5.687031E0,0E0,0E0,1.2121444E0,2.2931864E0,0E0,1.2294908E0,2.4890442E0,0E0,5.7889233E0,1.3277121E1,5.6282353E0,4.1471424E0,0E0,0E0,0E0,0E0,0E0,0E0,0E0,0E0,7.592207E0,4.8502455E0,1.1444389E1,1.9032402E1,0E0,0E0,2.0229015E0,0E0,0E0,0E0,0E0,0E0,0E0,0E0,0E0,0E0,0E0,0E0],"parents":[2147483647,0,0,1,1,2,2,4,4,5,5,6,6,7,7,8,8,9,9,10,10,11,11,12,12,15,15,16,16,18,18,19,19,21,21,22,22,23,23,24,24,33,33,34,34,35,35,36,36,39,39],"right_children":[2,4,6,-1,8,10,12,14,16,18,20,22,24,-1,-1,26,28,-1,30,32,-1,34,36,38,40,-1,-1,-1,-1,-1,-1,-1,-1,42,44,46,48,-1,-1,50,-1,-1,-1,-1,-1,-1,-1,-1,-1,-1,-1],"split_conditions":[1.9995272E1,8.358032E0,2.0411655E1,-2.885877E-1,1.0840665E1,3.5278847E0,5.714216E1,6.049835E0,6.514279E1,1.178714E1,2.165E1,-5.198052E0,3.25E-1,3.00995E-1,-8.767126E-3,5.5E1,6.26E-1,-2.7042568E-1,1.2378323E1,1.3571291E1,1.2216623E-1,5.531582E1,3.70904E1,1.2829546E2,1.38375E2,-2.7740061E-2,2.7394006E-1,3.717662E-2,-4.0798944E-1,2.551718E-1,-6.0536243E-2,7.434793E-2,-3.4604466E-1,4.3E1,2.598611E0,9.89032E1,4.2379807E1,-5.005149E-1,1.9205746E-1,1.6987178E0,-1.4213596E-1,-4.578379E-1,4.390606E-2,-7.046652E-2,2.3970817E-1,5.6915507E-2,-1.3610677E-1,1.5429913E-1,-3.1602573E-1,2.8183767E-1,-3.5628743E-2],"split_indices":[32,33,34,0,34,22,17,26,3,33,6,15,26,0,0,1,7,0,33,34,0,28,5,2,21,0,0,0,0,0,0,0,0,1,16,2,14,0,0,15,0,0,0,0,0,0,0,0,0,0,0],"split_type":[0,0,0,0,0,0,0,0,0,0,0,0,0,0,0,0,0,0,0,0,0,0,0,0,0,0,0,0,0,0,0,0,0,0,0,0,0,0,0,0,0,0,0,0,0,0,0,0,0,0,0],"sum_hessian":[4.0718573E2,5.580244E1,3.513833E2,1.0686689E1,4.5115753E1,3.2319824E1,3.1906348E2,3.4193993E1,1.09217615E1,6.557607E0,2.5762217E1,2.909262E2,2.813726E1,3.3149887E1,1.0441033E0,7.835204E0,3.0865571E0,2.0865774E0,4.4710298E0,2.400547E1,1.7567457E0,6.7402054E1,2.2352415E2,2.475176E0,2.5662085E1,1.2172213E0,6.617983E0,1.4782872E0,1.6082698E0,3.429618E0,1.0414118E0,1.000562E0,2.300491E1,3.867389E1,2.8728167E1,1.7139273E2,5.213142E1,1.2286985E0,1.2464775E0,2.3718557E1,1.9435279E0,1.9247947E0,3.6749092E1,5.0830545E0,2.3645113E1,3.394171E1,1.3745102E2,4.373116E1,8.400258E0,2.198636E1,1.7321967E0],"tree_param":{"num_deleted":"0","num_feature":"50","num_nodes":"51","size_leaf_vector":"0"}},{"base_weights":[-9.837513E-3,-7.971377E-2,4.636178E-1,1.1641568E-1,-2.5772992E-1,-8.79974E-1,5.3283995E-1,-6.0837346E-1,2.0709449E-1,-4.0628144E-1,1.0536934E-1,8.2330155E-1,2.0591222E-1,6.059362E-1,-9.5492905E-1,-3.776529E-1,3.0004787E-1,6.78289E-2,-5.6865793E-1,6.317846E-1,-3.5175565E-1,-1.9029185E-1,8.8548154E-1,-1.214827E0,3.491982E-1,8.133113E-2,7.7464116E-1,-1.6504786E0,-2.5641757E-1,4.6473587E-1,-8.9640236E-1,1.17540285E-1,6.3442636E-1,-4.5377263E-1,8.1128675E-1,-5.7929765E-2,-9.322799E-1,1.90057E-2,8.3708704E-1,2.3303643E-1,-8.076265E-1,1.12232395E-1,9.6992236E-1,-5.865526E-1,5.0322634E-1,-5.1777005E-1,-1.843633E0,8.042519E-1,-9.680515E-1,-7.1177596E-1,8.7303495E-1,4.7214973E-1,-1.1401317E0,-3.2893133E-1,3.1850705E-1,-3.757487E-1,7.798775E-1,-1.0154237E0,1.1443264E-1,9.662377E-1,3.0451301E-2,1.1131607E0,-4.8245716E-1,4.239763E-1,-1.1011535E0,6.723792E-1,-5.638752E-1,4.8452776E-2,9.034601E-1,-1.2870553E0,5.522929E-1,-1.3612162E0,2.5943235E-1,-3.0860436E-1,5.4368216E-1,1.0168735E0,1.980121E-1,-9.485452E-2,-7.6387507E-1,6.4001286E-1,-7.119835E-1],"categories":[],"categories_nodes":[],"categories_segments":[],"categories_sizes":[],"default_left":[1,1,1,1,1,0,1,1,1,1,1,1,1,1,1,1,1,1,1,1,1,0,1,0,1,0,0,1,1,1,1,1,1,1,1,1,1,1,1,1,1,1,1,1,1,0,0,0,0,0,0,0,0,0,0,0,0,0,0,0,0,0,0,0,0,0,0,0,0,0,0,0,0,0,0,0,0,0,0,0,0],"id":13,"left_children":[1,3,5,7,9,-1,11,13,15,17,19,21,23,25,27,29,31,33,35,37,39,-1,41,-1,43,-1,-1,45,47,49,51,53,55,57,59,61,63,65,67,69,71,73,75,77,79,-1,-1,-1,-1,-1,-1,-1,-1,-1,-1,-1,-1,-1,-1,-1,-1,-1,-1,-1,-1,-1,-1,-1,-1,-1,-1,-1,-1,-1,-1,-1,-1,-1,-1,-1,-1],"loss_changes":[1.2419685E1,1.1447181E1,4.959511E0,1.0396958E1,9.305749E0,0E0,4.2499237E0,7.9984903E0,7.703607E0,9.436535E0,1.2411433E1,1.7007046E0,5.15302E0,3.3761013E-1,6.4297724E0,8.980007E0,7.312607E0,1.2791633E1,1.6853117E1,2.990861E0,7.5870066E0,0E0,1.398304E0,0E0,3.4484565E0,0E0,0E0,5.514736E-1,6.984237E0,4.5253854E0,4.697551E0,7.2411013E0,6.5396194E0,6.3293552E0,1.6121731E0,1.9890236E1,1.2631424E1,3.0530622E0,8.9208984E-1,6.9875555E0,9.698096E0,7.8573436E-1,5.4810905E-1,2.3740876E-1,3.667769E0,0E0,0E0,0E0,0E0,0E0,0E0,0E0,0E0,0E0,0E0,0E0,0E0,0E0,0E0,0E0,0E0,0E0,0E0,0E0,0E0,0E0,0E0,0E0,0E0,0E0,0E0,0E0,0E0,0E0,0E0,0E0,0E0,0E0,0E0,0E0,0E0],"parents":[2147483647,0,0,1,1,2,2,3,3,4,4,6,6,7,7,8,8,9,9,10,10,11,11,12,12,13,13,14,14,15,15,16,16,17,17,18,18,19,19,20,20,22,22,24,24,27,27,28,28,29,29,30,30,31,31,32,32,33,33,34,34,35,35,36,36,37,37,38,38,39,39,40,40,41,41,42,42,43,43,44,44],"right_children":[2,4,6,8,10,-1,12,14,16,18,20,22,24,26,28,30,32,34,36,38,40,-1,42,-1,44,-1,-1,46,48,50,52,54,56,58,60,62,64,66,68,70,72,74,76,78,80,-1,-1,-1,-1,-1,-1,-1,-1,-1,-1,-1,-1,-1,-1,-1,-1,-1,-1,-1,-1,-1,-1,-1,-1,-1,-1,-1,-1,-1,-1,-1,-1,-1,-1,-1,-1],"split_conditions":[1.4276389E2,1.3736038E2,2.6896872E1,5.6330048E1,5E-1,-2.6399222E-1,3.6586876E1,2.7296667E0,2.566E1,5E-1,1.789236E1,1.24E1,4.230014E1,4.8723683E0,9.697287E1,1.3366092E2,3.0202158E2,3.1710715E0,1.8464286E0,3.3508782E0,9.547222E1,-5.708756E-2,3.14625E0,-3.644481E-1,3.7264168E1,2.4399338E-2,2.3239236E-1,1.9772827E1,1.34E2,3.4852562E1,3.68E0,1.5225E1,1.32875E2,1.3174999E1,1.8526389E2,4.6021805E1,1.2117126E1,-7.657444E0,1.3591667E1,2.625E0,4.6804347E0,2.1095394E1,8.333334E-1,1.9998024E1,4.232E0,-1.5533102E-1,-5.530899E-1,2.4127558E-1,-2.9041547E-1,-2.1353279E-1,2.619105E-1,1.4164492E-1,-3.4203953E-1,-9.86794E-2,9.555212E-2,-1.1272461E-1,2.3396325E-1,-3.0462712E-1,3.4329794E-2,2.8987134E-1,9.135391E-3,3.3394822E-1,-1.4473715E-1,1.271929E-1,-3.3034605E-1,2.0171377E-1,-1.6916257E-1,1.4535833E-2,2.7103803E-1,-3.861166E-1,1.6568787E-1,-4.0836486E-1,7.78297E-2,-9.258131E-2,1.6310465E-1,3.0506206E-1,5.940363E-2,-2.8456356E-2,-2.2916253E-1,1.9200386E-1,-2.1359506E-1],"split_indices":[21,21,14,24,43,0,5,9,25,36,4,19,24,16,12,21,27,16,16,23,12,0,9,0,25,0,0,33,13,17,22,19,21,6,13,24,34,15,10,23,22,4,0,32,9,0,0,0,0,0,0,0,0,0,0,0,0,0,0,0,0,0,0,0,0,0,0,0,0,0,0,0,0,0,0,0,0,0,0,0,0],"split_type":[0,0,0,0,0,0,0,0,0,0,0,0,0,0,0,0,0,0,0,0,0,0,0,0,0,0,0,0,0,0,0,0,0,0,0,0,0,0,0,0,0,0,0,0,0,0,0,0,0,0,0,0,0,0,0,0,0,0,0,0,0,0,0,0,0,0,0,0,0,0,0,0,0,0,0,0,0,0,0,0,0],"sum_hessian":[3.7328958E2,3.260066E2,4.728298E1,1.5527655E2,1.7073003E2,1.7428195E0,4.554016E1,1.6631676E1,1.3864488E2,1.2107626E2,4.9653763E1,2.331101E1,2.2229153E1,3.526518E0,1.3105159E1,1.8596424E1,1.20048454E2,3.1036753E1,9.003951E1,2.2900248E1,2.6753515E1,1.2282932E0,2.2082718E1,1.351375E0,2.0877777E1,1.2187577E0,2.3077602E0,5.883628E0,7.2215304E0,7.127049E0,1.1469376E1,7.853478E1,4.1513668E1,1.8468859E1,1.2567895E1,3.792748E1,5.2112034E1,6.0211425E0,1.6879105E1,1.19337225E1,1.4819793E1,2.4033816E0,1.9679335E1,2.5539505E0,1.8323828E1,1.3933367E0,4.4902916E0,2.8474064E0,4.374124E0,1.64467E0,5.482379E0,1.5921556E0,9.87722E0,2.417978E1,5.4355007E1,5.0257707E0,3.6487896E1,8.892179E0,9.576679E0,1.0288732E1,2.2791634E0,9.659343E0,2.8268135E1,5.6029625E0,4.650907E1,2.7665102E0,3.2546322E0,1.4445999E0,1.5434505E1,1.5451772E0,1.0388545E1,9.576064E0,5.243729E0,1.360791E0,1.0425906E0,1.8251827E1,1.4275079E0,1.0837481E0,1.4702024E0,1.689538E1,1.4284472E0],"tree_param":{"num_deleted":"0","num_feature":"50","num_nodes":"81","size_leaf_vector":"0"}},{"base_weights":[-1.1011789E-2,4.1582015E-1,-7.710708E-2,-9.229982E-1,7.202045E-1,-8.054689E-1,-2.159138E-2,9.390293E-1,2.4878043E-1,-9.510011E-1,3.1053102E-1,-9.184069E-2,3.7880272E-1,1.7943579E-1,9.802051E-1,-9.039485E-1,4.835976E-1,3.053422E-1,-1.0401217E0,-1.9992286E-2,-5.489589E-1,6.99537E-1,-8.406949E-2,6.602636E-1,-6.4299935E-1,9.8627746E-2,-1.1204602E0,-2.3569885E-1,1.9406693E-1,1.4781816E-1,-9.924037E-1,8.1105584E-1,-5.7643104E-1,3.9129135E-1,-7.8548133E-1,-2.8016707E-1,7.9166716E-1,4.3958288E-1,-3.9225763E-1,5.4007417E-1,-6.935938E-2,-6.8124557E-1,4.5716408E-1,-1.2921836E0,-1.8020234E-1,9.1338396E-1,-3.7089407E-1,-8.8068044E-1,6.2362546E-1,-1.5272939E0,1.288078E-1],"categories":[],"categories_nodes":[],"categories_segments":[],"categories_sizes":[],"default_left":[1,1,1,0,1,1,1,1,1,1,0,1,1,0,0,0,1,0,1,1,1,1,1,1,0,0,0,1,1,1,1,1,0,1,1,0,0,0,0,0,0,0,0,0,0,0,0,0,0,0,0],"id":14,"left_children":[1,3,5,-1,7,9,11,13,15,17,-1,19,21,-1,-1,-1,23,-1,25,27,29,31,33,35,-1,-1,-1,37,39,41,43,45,-1,47,49,-1,-1,-1,-1,-1,-1,-1,-1,-1,-1,-1,-1,-1,-1,-1,-1],"loss_changes":[9.612152E0,1.9284046E1,1.1906649E1,0E0,3.6645718E0,3.682806E0,7.7707586E0,6.200485E-1,4.04805E0,2.4110413E0,0E0,7.700149E0,6.182328E0,0E0,0E0,0E0,2.7599812E0,0E0,1.7284889E0,9.46215E0,9.988603E0,3.9497213E0,6.2340975E0,1.5362449E0,0E0,0E0,0E0,1.0958889E1,9.417066E0,3.7117414E0,4.5380363E0,3.1109076E0,0E0,3.8775282E0,5.292241E0,0E0,0E0,0E0,0E0,0E0,0E0,0E0,0E0,0E0,0E0,0E0,0E0,0E0,0E0,0E0,0E0],"parents":[2147483647,0,0,1,1,2,2,4,4,5,5,6,6,7,7,8,8,9,9,11,11,12,12,16,16,18,18,19,19,20,20,21,21,22,22,23,23,27,27,28,28,29,29,30,30,31,31,33,33,34,34],"right_children":[2,4,6,-1,8,10,12,14,16,18,-1,20,22,-1,-1,-1,24,-1,26,28,30,32,34,36,-1,-1,-1,38,40,42,44,46,-1,48,50,-1,-1,-1,-1,-1,-1,-1,-1,-1,-1,-1,-1,-1,-1,-1,-1],"split_conditions":[2.0551163E1,8.358032E0,2.0411655E1,-2.7689946E-1,1.0840665E1,2.165E1,5E-1,8.550724E0,1.0175992E1,1.3460526E1,9.315931E-2,2.2267769E1,3.665998E1,5.383074E-2,2.9406154E-1,-2.7118456E-1,1.4453739E1,9.160266E-2,4.6904764E0,1.3883334E2,9.50625E1,3.208631E0,3.7851667E0,9.66044E1,-1.9289981E-1,2.9588325E-2,-3.3613807E-1,9.75625E1,3.6659634E1,2.337815E1,4.4620295E0,2.125E0,-1.7292932E-1,3.9372223E1,1.8731226E2,-8.405013E-2,2.3750016E-1,1.3187487E-1,-1.1767729E-1,1.6202226E-1,-2.0807814E-2,-2.0437367E-1,1.3714923E-1,-3.876551E-1,-5.40607E-2,2.740152E-1,-1.1126823E-1,-2.6420414E-1,1.8708764E-1,-4.581882E-1,3.864234E-2],"split_indices":[32,33,34,0,34,6,40,33,33,34,0,4,5,0,0,0,34,0,35,20,12,18,9,11,0,0,0,20,14,4,16,26,0,25,20,0,0,0,0,0,0,0,0,0,0,0,0,0,0,0,0],"split_type":[0,0,0,0,0,0,0,0,0,0,0,0,0,0,0,0,0,0,0,0,0,0,0,0,0,0,0,0,0,0,0,0,0,0,0,0,0,0,0,0,0,0,0,0,0,0,0,0,0,0,0],"sum_hessian":[3.3858008E2,4.4689808E1,2.9389026E2,7.9018035E0,3.6788006E1,1.9857145E1,2.740331E2,2.4447916E1,1.2340089E1,1.7697187E1,2.1599574E0,2.337859E2,4.024721E1,1.5326205E0,2.2915295E1,1.6060969E0,1.0733992E1,1.0115179E0,1.6685669E1,2.0293324E2,3.0852673E1,2.3471796E1,1.6775415E1,9.636747E0,1.0972443E0,1.0845912E0,1.5601078E1,1.0102733E2,1.0190591E2,1.2258214E1,1.859446E1,2.1920332E1,1.5514643E0,1.0262471E1,6.512944E0,1.0426422E0,8.594106E0,1.8673882E1,8.235345E1,4.3594658E1,5.831125E1,3.004304E0,9.25391E0,1.3149918E1,5.4445424E0,2.038289E1,1.5374404E0,1.1540047E0,9.108466E0,3.2254717E0,3.2874725E0],"tree_param":{"num_deleted":"0","num_feature":"50","num_nodes":"51","size_leaf_vector":"0"}},{"base_weights":[-9.685381E-3,-6.9101945E-2,3.9975005E-1,-1.1967225E-1,5.136341E-1,-1.2466785E-1,5.7504576E-1,-2.2656834E-1,1.745815E-1,-7.942432E-1,6.186844E-1,-1.1403162E0,2.7649775E-1,-6.3929313E-1,6.4924747E-1,4.6731317E-1,-3.2138935E-1,-4.7235337E-1,3.6278987E-1,7.385741E-1,-3.295373E-1,-5.79982E-1,7.718648E-1,-2.1261328E-1,7.40753E-1,6.39094E-1,-3.9254114E-1,-6.9899035E-1,-1.3641289E-1,7.495767E-1,-8.222393E-1,4.487876E-1,-8.600872E-1,8.552342E-1,-1.9630462E-2,1.7103745E-1,-6.5862215E-1,5.0380415E-1,-1.1775047E0,4.3725586E-1,-7.231718E-1,-1.8288277E-1,8.1420416E-1,7.580367E-1,-3.8083994E-1,4.8442733E-1,-7.9871804E-1,8.33381E-5,-1.0075091E0,3.044316E-1,-3.3943915E-1,3.859574E-1,-9.997056E-1,-7.7409613E-1,5.049844E-1,-3.8982954E-2,-1.1351804E0,6.9706656E-2,9.362368E-1,-5.367149E-1,5.779243E-1,2.6568508E-1,8.821757E-1],"categories":[],"categories_nodes":[],"categories_segments":[],"categories_sizes":[],"default_left":[1,1,1,1,1,1,1,1,1,0,1,0,1,0,1,1,1,1,1,1,1,1,0,1,1,1,1,1,1,0,1,1,1,1,1,0,0,0,0,0,0,0,1,0,0,0,0,0,0,0,0,0,0,0,0,0,0,0,0,0,0,0,0],"id":15,"left_children":[1,3,5,7,9,11,13,15,17,-1,19,-1,21,-1,23,25,27,29,31,33,35,37,-1,39,41,43,45,47,49,-1,51,53,55,57,59,-1,-1,-1,-1,-1,-1,-1,61,-1,-1,-1,-1,-1,-1,-1,-1,-1,-1,-1,-1,-1,-1,-1,-1,-1,-1,-1,-1],"loss_changes":[7.7033024E0,8.20631E0,3.7609758E0,8.064461E0,3.549572E0,4.74663E0,3.1413326E0,1.2491751E1,8.517857E0,0E0,2.6495695E0,0E0,4.096964E0,0E0,2.4453754E0,3.6420321E0,1.1472652E1,7.4067874E0,6.0298424E0,1.7061071E0,6.1791945E-1,3.004076E0,0E0,1.4978768E0,1.9432364E0,2.656292E0,1.969336E0,1.1692638E1,1.0163952E1,0E0,3.1355247E0,3.8818378E0,8.2967234E-1,9.8936176E-1,1.3991412E0,0E0,0E0,0E0,0E0,0E0,0E0,0E0,6.859207E-1,0E0,0E0,0E0,0E0,0E0,0E0,0E0,0E0,0E0,0E0,0E0,0E0,0E0,0E0,0E0,0E0,0E0,0E0,0E0,0E0],"parents":[2147483647,0,0,1,1,2,2,3,3,4,4,5,5,6,6,7,7,8,8,10,10,12,12,14,14,15,15,16,16,17,17,18,18,19,19,20,20,21,21,23,23,24,24,25,25,26,26,27,27,28,28,30,30,31,31,32,32,33,33,34,34,42,42],"right_children":[2,4,6,8,10,12,14,16,18,-1,20,-1,22,-1,24,26,28,30,32,34,36,38,-1,40,42,44,46,48,50,-1,52,54,56,58,60,-1,-1,-1,-1,-1,-1,-1,62,-1,-1,-1,-1,-1,-1,-1,-1,-1,-1,-1,-1,-1,-1,-1,-1,-1,-1,-1,-1],"split_conditions":[1.4276389E2,5.1464286E0,3.1592858E0,7.95E1,5.35E1,1.4505556E1,2.6896872E1,9.7690475E1,1.6904545E1,-2.3827298E-1,1.99625E0,-3.420949E-1,2.022686E1,-1.9178794E-1,5.1E1,1.835E0,1.3294118E2,5.6685E-1,4.338889E1,3.3212634E2,1.1695294E1,1.3675E1,2.3155944E-1,1.68065E2,1.1875E1,1.1416411E2,1.46E2,1.15875E2,9.708995E0,2.2487302E-1,1.9267365E1,4.461375E1,1.74E1,1.7933333E0,8.4E1,5.1311236E-2,-1.9758666E-1,1.5114126E-1,-3.532514E-1,1.3117677E-1,-2.1695153E-1,-5.4864835E-2,3.696463E1,2.2741102E-1,-1.14251986E-1,1.4532821E-1,-2.3961543E-1,2.5001431E-5,-3.0225274E-1,9.132948E-2,-1.0183175E-1,1.1578722E-1,-2.999117E-1,-2.3222885E-1,1.5149532E-1,-1.1694887E-2,-3.4055412E-1,2.0911997E-2,2.8087106E-1,-1.6101448E-1,1.733773E-1,7.970553E-2,2.6465273E-1],"split_indices":[21,22,9,1,1,10,14,20,4,0,7,0,4,0,1,7,20,7,14,27,35,29,0,30,19,2,27,11,35,0,32,24,33,16,1,0,0,0,0,0,0,0,25,0,0,0,0,0,0,0,0,0,0,0,0,0,0,0,0,0,0,0,0],"split_type":[0,0,0,0,0,0,0,0,0,0,0,0,0,0,0,0,0,0,0,0,0,0,0,0,0,0,0,0,0,0,0,0,0,0,0,0,0,0,0,0,0,0,0,0,0,0,0,0,0,0,0,0,0,0,0,0,0,0,0,0,0,0,0],"sum_hessian":[3.1451776E2,2.7538553E2,3.9132248E1,2.5412683E2,2.1258692E1,9.875958E0,2.9256289E1,1.865773E2,6.754952E1,1.0927938E0,2.0165897E1,2.2746415E0,7.601317E0,1.2461964E0,2.8010092E1,2.1958792E1,1.6461852E2,1.4882766E1,5.2666756E1,1.8098663E1,2.067234E0,2.7228134E0,4.8785033E0,2.5614197E0,2.5448673E1,1.8516356E1,3.4424367E0,5.3213177E1,1.1140534E2,3.0586145E0,1.1824151E1,4.979778E1,2.868977E0,1.5574363E1,2.5243003E0,1.0104661E0,1.0567681E0,1.0234059E0,1.6994076E0,1.1901278E0,1.3712919E0,1.7649441E0,2.368373E1,1.6812492E1,1.7038616E0,1.0287126E0,2.4137242E0,1.6599667E1,3.661351E1,3.4971E1,7.643434E1,1.3638945E0,1.0460257E1,1.6266187E0,4.817116E1,1.0064902E0,1.862487E0,1.629803E0,1.394456E1,1.4078525E0,1.1164479E0,3.1524837E0,2.0531244E1],"tree_param":{"num_deleted":"0","num_feature":"50","num_nodes":"63","size_leaf_vector":"0"}},{"base_weights":[-9.884295E-3,2.5564614E-1,-9.3514025E-2,3.5368806E-1,-6.2916195E-1,-1.76848E-1,3.7205184E-1,-1.482404E-1,5.01447E-1,-1.2991165E0,6.6226274E-1,-9.882024E-1,-1.17311694E-1,6.2460715E-1,-1.1703147E-1,-7.4705607E-1,4.64825E-1,-4.9795523E-1,5.703782E-1,-1.4958696E0,-2.4071832E-1,5.416137E-4,-1.2077363E0,-2.4079259E-1,2.1200322E-1,-2.5556E-1,7.8083163E-1,-1.0170488E0,3.5223234E-1,4.3754068E-1,-1.0334982E0,-5.189765E-1,6.936173E-1,-9.6861416E-1,2.2173898E-1,6.3741726E-1,-2.6582626E-1,-5.4187787E-1,5.180965E-1,-5.0096005E-1,2.178735E-3,7.0148104E-1,-1.4564962E-2,-9.316283E-1,3.8400108E-1,8.8979036E-1,1.600923E-1,-3.9623895E-1,8.1010526E-1,8.5723543E-1,-1.05553575E-1,7.1686995E-1,1.9955516E-2,-8.736983E-1,5.8311623E-1,-6.178236E-1,1.0003991E0,3.973187E-1,-3.0151638E-1,8.4278685E-1,-3.886434E-1,9.374232E-1,-2.0378198E-1,9.353008E-1,1.7160203E-1,6.6383463E-1,-3.9662483E-1,-1.211559E0,3.696843E-1],"categories":[],"categories_nodes":[],"categories_segments":[],"categories_sizes":[],"default_left":[1,1,1,1,1,1,1,1,1,1,0,1,1,1,1,1,1,1,1,0,0,1,0,1,1,1,1,0,1,0,0,0,1,0,0,1,1,0,0,1,1,1,1,0,0,1,1,1,0,0,0,0,0,0,0,0,0,0,0,0,0,0,0,0,0,0,0,0,0],"id":16,"left_children":[1,3,5,7,9,11,13,15,17,19,-1,21,23,25,27,29,31,33,35,-1,-1,37,-1,39,41,43,45,-1,47,-1,-1,-1,49,-1,-1,51,53,-1,-1,55,57,59,61,-1,-1,63,65,67,-1,-1,-1,-1,-1,-1,-1,-1,-1,-1,-1,-1,-1,-1,-1,-1,-1,-1,-1,-1,-1],"loss_changes":[6.5611153E0,6.3624196E0,8.780009E0,4.847415E0,7.280266E0,9.119307E0,4.3249426E0,6.0040393E0,3.7250223E0,7.276325E-1,0E0,2.8084116E0,7.340109E0,3.3426008E0,5.6646776E0,3.2273364E0,2.2124915E0,1.4872973E0,2.8149757E0,0E0,0E0,1.2211337E0,0E0,8.271641E0,5.490321E0,2.173336E0,1.1871834E0,0E0,3.4057202E0,0E0,0E0,0E0,1.0195746E0,0E0,0E0,2.1435146E0,2.6811771E0,0E0,0E0,1.1704376E1,8.357864E0,2.739201E0,6.45222E0,0E0,0E0,3.7893677E-1,1.4284947E0,3.0007062E0,0E0,0E0,0E0,0E0,0E0,0E0,0E0,0E0,0E0,0E0,0E0,0E0,0E0,0E0,0E0,0E0,0E0,0E0,0E0,0E0,0E0],"parents":[2147483647,0,0,1,1,2,2,3,3,4,4,5,5,6,6,7,7,8,8,9,9,11,11,12,12,13,13,14,14,15,15,16,16,17,17,18,18,21,21,23,23,24,24,25,25,26,26,28,28,32,32,35,35,36,36,39,39,40,40,41,41,42,42,45,45,46,46,47,47],"right_children":[2,4,6,8,10,12,14,16,18,20,-1,22,24,26,28,30,32,34,36,-1,-1,38,-1,40,42,44,46,-1,48,-1,-1,-1,50,-1,-1,52,54,-1,-1,56,58,60,62,-1,-1,64,66,68,-1,-1,-1,-1,-1,-1,-1,-1,-1,-1,-1,-1,-1,-1,-1,-1,-1,-1,-1,-1,-1],"split_conditions":[5E-1,3.1727832E2,1.9663292E1,1.747408E1,8.55E1,5.15E1,1.0503771E2,1.62E0,6.3750005E-1,1.2109007E2,1.9867884E-1,1.9591982E1,1.626625E1,2.93E0,3.4330128E1,1.3965738E1,1.3660416E2,8.7666664E1,3.72275E1,-4.487609E-1,-7.22155E-2,8.854376E0,-3.623209E-1,9.699887E1,9.465424E1,8.5E1,7.75E1,-3.0511466E-1,1.2558332E1,1.3126221E-1,-3.1004947E-1,-1.5569296E-1,3.325E0,-2.9058427E-1,6.65217E-2,1.125E0,3.5041664E1,-1.6256337E-1,1.5542896E-1,4.75E0,3.656349E1,6.103611E1,4.6265E1,-2.794885E-1,1.15200326E-1,1.977792E0,1.36E2,1.5452274E2,2.4303159E-1,2.5717065E-1,-3.1666074E-2,2.15061E-1,5.986655E-3,-2.621095E-1,1.7493488E-1,-1.8534708E-1,3.0011976E-1,1.1919561E-1,-9.045492E-2,2.5283608E-1,-1.16593026E-1,2.81227E-1,-6.1134595E-2,2.8059027E-1,5.148061E-2,1.991504E-1,-1.18987456E-1,-3.6346772E-1,1.109053E-1],"split_indices":[36,27,35,4,1,1,2,18,7,2,0,32,10,16,34,32,21,25,5,0,0,33,0,12,12,24,1,0,6,0,0,0,9,0,0,0,17,0,0,15,14,28,31,0,0,7,27,20,0,0,0,0,0,0,0,0,0,0,0,0,0,0,0,0,0,0,0,0,0],"split_type":[0,0,0,0,0,0,0,0,0,0,0,0,0,0,0,0,0,0,0,0,0,0,0,0,0,0,0,0,0,0,0,0,0,0,0,0,0,0,0,0,0,0,0,0,0,0,0,0,0,0,0,0,0,0,0,0,0,0,0,0,0,0,0,0,0,0,0,0,0],"sum_hessian":[2.9338614E2,6.977826E1,2.2360788E2,6.3358078E1,6.420181E0,1.9018573E2,3.3422153E1,1.440884E1,4.8949234E1,4.2232976E0,2.1968832E0,1.1935239E1,1.7825049E2,2.185794E1,1.1564213E1,7.1785684E0,7.2302723E0,2.756726E0,4.619251E1,3.212727E0,1.0105704E0,2.3497753E0,9.585464E0,1.2983571E2,4.841478E1,3.198993E0,1.8658947E1,3.5630965E0,8.001116E0,1.2951024E0,5.883466E0,1.1248995E0,6.105373E0,1.4576178E0,1.2991083E0,4.2984165E1,3.2083445E0,1.1243807E0,1.2253947E0,6.218635E1,6.764936E1,1.4655951E1,3.3758827E1,1.3331143E0,1.8658787E0,1.5504072E1,3.1548753E0,3.087948E0,4.913168E0,5.007506E0,1.097867E0,3.7941055E1,5.043109E0,1.852634E0,1.3557104E0,5.8241417E1,3.9449334E0,2.926464E1,3.838472E1,1.3175043E1,1.4809067E0,4.941739E0,2.881709E1,1.429586E1,1.2082121E0,1.5552275E0,1.5996479E0,1.2139152E0,1.8740329E0],"tree_param":{"num_deleted":"0","num_feature":"50","num_nodes":"69","size_leaf_vector":"0"}},{"base_weights":[-5.94265E-3,3.7945133E-1,-6.077376E-2,-7.2614986E-1,7.105442E-1,-7.7260816E-1,-1.5639227E-2,-8.926062E-1,2.1084882E-2,9.568254E-1,2.5805208E-1,-9.1462994E-1,1.8729614E-1,-9.041217E-1,1.0665836E-2,5.560468E-1,-6.794231E-1,-2.7042104E-2,-9.898016E-1,-1.226669E0,4.3133152E-1,4.782111E-1,-3.764736E-2,7.5659335E-1,-2.3441218E-1,-1.0731157E-1,-1.0630449E0,7.2637725E-1,-8.432251E-1,-6.869572E-1,5.6074806E-3,1.6846603E-1,8.2471526E-1,9.082921E-1,-7.702938E-1,6.569572E-1,-1.0981086E0,-8.1837946E-1,4.4281345E-2],"categories":[],"categories_nodes":[],"categories_segments":[],"categories_sizes":[],"default_left":[1,1,1,1,1,1,1,0,0,0,1,1,0,1,1,1,0,0,1,0,0,1,1,1,0,0,0,1,0,1,1,0,0,0,0,0,0,0,0],"id":17,"left_children":[1,3,5,7,9,11,13,-1,-1,-1,15,17,-1,19,21,23,-1,-1,25,-1,-1,27,29,31,-1,-1,-1,33,-1,35,37,-1,-1,-1,-1,-1,-1,-1,-1],"loss_changes":[5.8001447E0,1.3031068E1,7.7050514E0,1.0603428E0,2.7414055E0,2.1209488E0,5.3125653E0,0E0,0E0,0E0,3.4005852E0,8.1578827E-1,0E0,3.344524E0,5.018217E0,1.5660863E0,0E0,0E0,6.3660336E-1,0E0,0E0,7.435088E0,5.664693E0,1.5049314E-1,0E0,0E0,0E0,5.614745E0,0E0,7.681604E0,6.089613E0,0E0,0E0,0E0,0E0,0E0,0E0,0E0,0E0],"parents":[2147483647,0,0,1,1,2,2,3,3,4,4,5,5,6,6,10,10,11,11,13,13,14,14,15,15,18,18,21,21,22,22,23,23,27,27,29,29,30,30],"right_children":[2,4,6,8,10,12,14,-1,-1,-1,16,18,-1,20,22,24,-1,-1,26,-1,-1,28,30,32,-1,-1,-1,34,-1,36,38,-1,-1,-1,-1,-1,-1,-1,-1],"split_conditions":[2.0551163E1,8.553804E0,2.0411655E1,5E-1,1.0840665E1,2.165E1,2.75E-1,-2.6778188E-1,6.325465E-3,2.8704762E-1,3.6953125E1,9.525E1,5.6188844E-2,2.585E2,1.4804225E1,1.399E2,-2.0382693E-1,-8.112632E-3,5.0590277E0,-3.680007E-1,1.2939946E-1,1.1343739E2,1.5992424E1,1.94E2,-7.032365E-2,-3.219347E-2,-3.189135E-1,5.55E-17,-2.5296754E-1,9.4801895E1,2.8158333E1,5.053981E-2,2.4741459E-1,2.7248764E-1,-2.3108815E-1,1.9708717E-1,-3.294326E-1,-2.4551384E-1,1.3284404E-2],"split_indices":[32,33,34,43,34,6,26,0,0,0,5,20,0,25,4,21,0,0,35,0,0,2,4,27,0,0,0,15,0,2,28,0,0,0,0,0,0,0,0],"split_type":[0,0,0,0,0,0,0,0,0,0,0,0,0,0,0,0,0,0,0,0,0,0,0,0,0,0,0,0,0,0,0,0,0,0,0,0,0,0,0],"sum_hessian":[2.723863E2,3.3188984E1,2.3919731E2,7.3735805E0,2.5815401E1,1.33011875E1,2.2589612E2,5.8711576E0,1.502423E0,1.5995078E1,9.820324E0,1.162795E1,1.6732373E0,5.536144E0,2.2035997E2,7.760398E0,2.0599258E0,1.014071E0,1.0613879E1,4.5247545E0,1.0113891E0,1.980465E1,2.0055533E2,6.2241244E0,1.5362737E0,1.0023195E0,9.61156E0,1.7052498E1,2.7521522E0,1.1596442E1,1.8895888E2,1.0066103E0,5.217514E0,1.5554973E1,1.4975249E0,2.576592E0,9.019851E0,7.5673594E0,1.8139153E2],"tree_param":{"num_deleted":"0","num_feature":"50","num_nodes":"39","size_leaf_vector":"0"}},{"base_weights":[-9.3456535E-3,-8.89628E-2,2.1512806E-1,-4.7116384E-1,6.080471E-4,-8.4968835E-1,2.833305E-1,-6.37399E-1,7.1404874E-1,6.898973E-2,-4.6252084E-1,-1.0650073E0,-7.251405E-2,3.5670346E-1,-5.872975E-1,2.756615E-3,-8.9208555E-1,2.4275921E-1,8.1456995E-1,-4.7265595E-1,1.3959306E-1,-6.395835E-1,7.363254E-1,-1.5056592E-1,4.7516742E-1,-8.8998616E-1,4.951635E-2,-5.5520886E-1,4.490623E-1,2.1942744E-1,-1.0024288E0,4.5607883E-1,-1.0024419E0,6.44146E-1,7.0360556E-2,-9.192967E-1,1.5781008E-1,3.5748008E-1,-9.343838E-1,-5.744925E-1,5.4366016E-1,9.290126E-2,-7.701562E-1,-2.2731914E-1,6.6186804E-1,-1.068691E0,1.5676703E-1,-5.081361E-1,7.4309534E-1,-1.3135504E0,1.2522566E-1,-4.6544272E-1,8.553211E-1,-5.1986903E-2,4.5409006E-1,2.5119603E-1,-1.046331E0,-7.225386E-1,7.0736074E-1,6.5544E-1,-5.656599E-1,-1.0931847E0,-1.9321474E-1,2.059974E-1,-9.865507E-1,-2.2961903E-1,6.0087293E-1],"categories":[],"categories_nodes":[],"categories_segments":[],"categories_sizes":[],"default_left":[1,1,1,1,1,1,1,1,1,1,1,0,0,1,1,1,1,0,0,1,1,1,0,1,1,0,0,1,1,0,1,1,1,1,1,1,1,1,1,1,1,0,0,0,0,0,0,0,0,0,0,0,0,0,0,0,0,0,0,0,0,0,0,0,0,0,0],"id":18,"left_children":[1,3,5,7,9,11,13,15,17,19,21,-1,-1,23,25,27,29,-1,-1,31,33,35,-1,37,39,-1,-1,41,43,-1,45,47,49,51,53,55,57,59,61,63,65,-1,-1,-1,-1,-1,-1,-1,-1,-1,-1,-1,-1,-1,-1,-1,-1,-1,-1,-1,-1,-1,-1,-1,-1,-1,-1],"loss_changes":[4.630148E0,6.544461E0,5.167698E0,7.6061134E0,4.9680724E0,6.480069E-1,4.33036E0,5.2782135E0,3.6102295E-2,5.2929745E0,4.755128E0,0E0,0E0,3.6841683E0,1.083383E0,2.7910454E0,3.059515E0,0E0,0E0,8.324718E0,4.2055645E0,4.186703E0,0E0,5.168661E0,3.833438E0,0E0,0E0,7.6574445E-1,1.0462743E0,0E0,1.7990627E0,2.1751657E0,3.8462458E0,3.8099194E0,5.1002007E0,2.2793064E0,3.2006125E0,2.595842E0,3.8330555E-1,1.3244373E0,2.1947613E0,0E0,0E0,0E0,0E0,0E0,0E0,0E0,0E0,0E0,0E0,0E0,0E0,0E0,0E0,0E0,0E0,0E0,0E0,0E0,0E0,0E0,0E0,0E0,0E0,0E0,0E0],"parents":[2147483647,0,0,1,1,2,2,3,3,4,4,5,5,6,6,7,7,8,8,9,9,10,10,13,13,14,14,15,15,16,16,19,19,20,20,21,21,23,23,24,24,27,27,28,28,30,30,31,31,32,32,33,33,34,34,35,35,36,36,37,37,38,38,39,39,40,40],"right_children":[2,4,6,8,10,12,14,16,18,20,22,-1,-1,24,26,28,30,-1,-1,32,34,36,-1,38,40,-1,-1,42,44,-1,46,48,50,52,54,56,58,60,62,64,66,-1,-1,-1,-1,-1,-1,-1,-1,-1,-1,-1,-1,-1,-1,-1,-1,-1,-1,-1,-1,-1,-1,-1,-1,-1,-1],"split_conditions":[7.95E1,2.8773865E1,4.4640137E1,1.15625E1,2.1415343E0,3.3656836E0,1.6688454E-1,5.75E1,1.641839E0,1.33775E2,6.0156563E1,-3.195022E-1,-2.1754216E-2,1.6904545E1,2.6808334E1,2.2873334E2,8.82267E0,7.2827764E-2,2.44371E-1,3.0971788E1,1.2717106E1,1.4145E2,2.2089763E-1,1.0811304E1,3.8333333E-1,-2.6699585E-1,1.4854905E-2,3.6581913E1,5E-1,6.5828234E-2,3.7457787E1,3.663889E1,1.6275E1,1.7873016E1,4.7573614E0,8.4111115E1,6.208744E1,3.6614475E0,9.426109E1,2.722643E1,2.7083332E1,2.787038E-2,-2.3104687E-1,-6.8195745E-2,1.9856042E-1,-3.206073E-1,4.703011E-2,-1.5244083E-1,2.2292861E-1,-3.940651E-1,3.75677E-2,-1.3963282E-1,2.5659636E-1,-1.5596071E-2,1.3622703E-1,7.535881E-2,-3.1389934E-1,-2.1676159E-1,2.1220823E-1,1.96632E-1,-1.6969797E-1,-3.2795542E-1,-5.7964426E-2,6.1799224E-2,-2.9596522E-1,-6.8885714E-2,1.8026188E-1],"split_indices":[1,25,24,0,7,23,8,1,18,21,32,0,0,4,17,11,34,0,0,14,17,21,0,35,26,0,0,5,42,0,5,5,6,4,22,13,3,23,24,32,14,0,0,0,0,0,0,0,0,0,0,0,0,0,0,0,0,0,0,0,0,0,0,0,0,0,0],"split_type":[0,0,0,0,0,0,0,0,0,0,0,0,0,0,0,0,0,0,0,0,0,0,0,0,0,0,0,0,0,0,0,0,0,0,0,0,0,0,0,0,0,0,0,0,0,0,0,0,0,0,0,0,0,0,0,0,0,0,0,0,0,0,0,0,0,0,0],"sum_hessian":[2.5700253E2,1.9015968E2,6.6842834E1,3.529496E1,1.5486472E2,3.3338888E0,6.350895E1,3.1358849E1,3.936113E0,1.3568208E2,1.918263E1,2.3205998E0,1.0132891E0,5.9117092E1,4.3918552E0,9.20677E0,2.2152079E1,1.2922868E0,2.6438265E0,1.4989906E1,1.20692184E2,1.712053E1,2.062103E0,1.1140756E1,4.7976337E1,2.7074137E0,1.6844417E0,3.983118E0,5.223652E0,1.9112297E0,2.0240849E1,5.4953957E0,9.49451E0,1.3560659E1,1.0713152E2,1.2561334E1,4.5591946E0,7.0894938E0,4.0512614E0,2.4862719E0,4.5490067E1,1.1334201E0,2.8496978E0,1.2338344E0,3.9898176E0,1.9220253E1,1.0205957E0,1.0838522E0,4.411544E0,7.3123045E0,2.1822054E0,1.9756789E0,1.158498E1,8.188729E1,2.5244238E1,1.1341261E0,1.1427208E1,1.6312481E0,2.9279466E0,5.578819E0,1.510675E0,2.945269E0,1.1059923E0,1.0318656E0,1.4544063E0,2.926226E0,4.256384E1],"tree_param":{"num_deleted":"0","num_feature":"50","num_nodes":"67","size_leaf_vector":"0"}},{"base_weights":[-1.3028153E-2,3.926655E-1,-5.7741635E-2,-8.4681445E-1,7.3736936E-1,-1.10965654E-1,2.6542142E-1,8.412327E-1,-7.497379E-2,1.9650869E-1,-2.0588271E-1,-2.7879134E-1,4.0959975E-1,8.97517E-1,7.0658356E-2,-4.6348625E-1,3.5260078E-1,2.9221588E-1,-8.0452955E-1,-1.3810386E-1,-1.063634E0,2.6160333E-1,-9.554722E-1,-5.8178306E-1,5.102305E-1,4.1851038E-1,-3.9861363E-1,-1.231816E0,2.6835024E-1,-2.4137755E-1,3.4305072E-1,1.9245632E-1,-1.345838E0,-2.0584585E-1,6.3945013E-1,-2.4548618E-1,6.1725104E-1,-1.384932E-1,5.5909115E-1,2.888386E-1,-8.555023E-1,-1.1335922E-2,-4.7733843E-1,5.997504E-1,-9.165405E-1,-7.5895995E-1,5.317055E-1,7.458477E-1,5.3860308E-3],"categories":[],"categories_nodes":[],"categories_segments":[],"categories_sizes":[],"default_left":[1,1,1,0,1,1,1,1,1,1,1,1,1,0,0,0,0,1,1,1,1,1,0,0,1,1,1,0,0,1,1,0,0,0,0,1,1,0,0,0,0,0,0,0,0,0,0,0,0],"id":19,"left_children":[1,3,5,-1,7,9,11,13,15,17,19,21,23,-1,-1,-1,-1,25,27,29,31,33,-1,-1,35,37,39,-1,-1,41,43,-1,-1,-1,-1,45,47,-1,-1,-1,-1,-1,-1,-1,-1,-1,-1,-1,-1],"loss_changes":[4.376687E0,1.0859756E1,3.7630134E0,0E0,1.6896114E0,5.500225E0,2.5457635E0,6.814604E-1,6.789853E-1,4.5118904E0,8.1921835E0,2.840973E0,2.7813735E0,0E0,0E0,0E0,0E0,3.7856908E0,2.2384977E0,6.7454376E0,3.9296093E0,9.661001E-1,0E0,0E0,2.0231853E0,2.861527E0,2.4215412E0,0E0,0E0,6.0184455E0,8.34423E0,0E0,0E0,0E0,0E0,1.8346655E0,1.6133928E0,0E0,0E0,0E0,0E0,0E0,0E0,0E0,0E0,0E0,0E0,0E0,0E0],"parents":[2147483647,0,0,1,1,2,2,4,4,5,5,6,6,7,7,8,8,9,9,10,10,11,11,12,12,17,17,18,18,19,19,20,20,21,21,24,24,25,25,26,26,29,29,30,30,35,35,36,36],"right_children":[2,4,6,-1,8,10,12,14,16,18,20,22,24,-1,-1,-1,-1,26,28,30,32,34,-1,-1,36,38,40,-1,-1,42,44,-1,-1,-1,-1,46,48,-1,-1,-1,-1,-1,-1,-1,-1,-1,-1,-1,-1],"split_conditions":[1.986886E1,8.358032E0,1.9701754E1,-2.5404435E-1,4.745E2,5E-1,3.0485294E1,2.9775E2,4.925125E1,3.1727832E2,4.4861904E1,3.4455662E0,2.74E1,2.6925513E-1,2.1197507E-2,-1.3904588E-1,1.0578024E-1,9.791666E-1,1.41125E2,6.020833E0,9.830682E1,2.201228E1,-2.8664166E-1,-1.7453492E-1,1.33775E2,5.7380833E1,1.455E1,-3.6954483E-1,8.050507E-2,2.4555514E0,1.3328333E-1,5.77369E-2,-4.037514E-1,-6.1753757E-2,1.9183505E-1,6.85E1,7.85E1,-4.154796E-2,1.6772735E-1,8.665158E-2,-2.5665072E-1,-3.4007768E-3,-1.4320153E-1,1.7992513E-1,-2.7496216E-1,-2.27688E-1,1.5951166E-1,2.2375432E-1,1.6158093E-3],"split_indices":[32,33,35,0,25,36,34,11,28,27,14,23,25,0,0,0,0,0,21,0,13,33,0,0,21,24,29,0,0,16,8,0,0,0,0,1,1,0,0,0,0,0,0,0,0,0,0,0,0],"split_type":[0,0,0,0,0,0,0,0,0,0,0,0,0,0,0,0,0,0,0,0,0,0,0,0,0,0,0,0,0,0,0,0,0,0,0,0,0,0,0,0,0,0,0,0,0,0,0,0,0],"sum_hessian":[2.3902315E2,2.2956131E1,2.1606702E2,4.678091E0,1.827804E1,1.8607727E2,2.998976E1,1.6174465E1,2.103574E0,4.3639885E1,1.4243738E2,6.085582E0,2.3904177E1,1.4919946E1,1.2545205E0,1.0581262E0,1.0454477E0,4.047796E1,3.1619263E0,1.3308232E2,9.355058E0,3.7245626E0,2.361019E0,1.7621965E0,2.2141981E1,3.4554962E1,5.922999E0,2.1553814E0,1.006545E0,1.0997576E2,2.310656E1,1.7745509E0,7.5805063E0,1.8683577E0,1.8562051E0,2.5861654E0,1.9555815E1,6.9666867E0,2.7588274E1,2.511665E0,3.4113336E0,5.6217026E1,5.375874E1,1.9629913E1,3.476645E0,1.5714203E0,1.014745E0,1.5978594E1,3.5772216E0],"tree_param":{"num_deleted":"0","num_feature":"50","num_nodes":"49","size_leaf_vector":"0"}},{"base_weights":[-1.3008202E-2,3.251669E-1,-6.0512602E-2,-4.669372E-2,7.654698E-1,-5.8509976E-1,-2.636178E-2,-3.301088E-1,7.169359E-1,1.0678374E-2,8.757733E-1,-1.0177941E0,1.3010015E-1,-9.7999275E-2,2.8813726E-1,6.081245E-1,-7.637998E-1,2.5288424E-1,9.597675E-1,-1.3171564E0,4.7361863E-1,6.198012E-1,-1.0024189E0,2.193673E-1,-2.5079805E-1,5.480076E-1,-5.3887457E-1,1.0168121E-1,7.7973276E-1,2.353526E-1,-1.0265601E0,-1.5352414E0,-6.170349E-2,-1.2146937E-1,5.3800684E-1,-6.267261E-1,-2.2880016E-2,-3.392894E-1,7.684386E-1,2.2191547E-1,-1.5928344E0,6.580093E-2,-1.2916698E0,5.710759E-1,-3.4487528E-1,-4.3212187E-1,6.421325E-1,-7.9954076E-1,5.4128855E-1,-1.8238616E-1,3.9039198E-1,-8.172975E-1,2.7245125E-1,9.8303616E-1,-6.650617E-3,-5.4463494E-1,4.8738933E-1],"categories":[],"categories_nodes":[],"categories_segments":[],"categories_sizes":[],"default_left":[1,1,1,1,1,1,1,1,0,0,1,1,1,1,1,1,1,0,0,1,0,0,0,1,1,1,1,0,0,0,1,0,0,1,1,1,1,1,1,1,0,0,0,0,0,0,0,0,0,0,0,0,0,0,0,0,0],"id":20,"left_children":[1,3,5,7,9,11,13,15,-1,-1,17,19,21,23,25,27,29,-1,-1,31,-1,-1,-1,33,35,37,39,-1,-1,-1,41,-1,-1,43,45,47,49,51,53,55,-1,-1,-1,-1,-1,-1,-1,-1,-1,-1,-1,-1,-1,-1,-1,-1,-1],"loss_changes":[3.6522574E0,4.621578E0,3.5516856E0,3.7268975E0,1.0631118E0,3.8839808E0,4.2636213E0,5.5289316E0,0E0,0E0,3.4466076E-1,4.0467157E0,3.6473494E0,7.516138E0,7.8453608E0,3.1104958E-1,2.5926433E0,0E0,0E0,1.7258406E0,0E0,0E0,0E0,5.553764E0,8.924141E0,5.5858984E0,7.492873E0,0E0,0E0,0E0,2.1923547E0,0E0,0E0,4.101016E0,2.9344516E0,8.373203E0,4.420884E0,2.0098145E0,3.6849613E0,1.4963708E0,0E0,0E0,0E0,0E0,0E0,0E0,0E0,0E0,0E0,0E0,0E0,0E0,0E0,0E0,0E0,0E0,0E0],"parents":[2147483647,0,0,1,1,2,2,3,3,4,4,5,5,6,6,7,7,10,10,11,11,12,12,13,13,14,14,15,15,16,16,19,19,23,23,24,24,25,25,26,26,30,30,33,33,34,34,35,35,36,36,37,37,38,38,39,39],"right_children":[2,4,6,8,10,12,14,16,-1,-1,18,20,22,24,26,28,30,-1,-1,32,-1,-1,-1,34,36,38,40,-1,-1,-1,42,-1,-1,44,46,48,50,52,54,56,-1,-1,-1,-1,-1,-1,-1,-1,-1,-1,-1,-1,-1,-1,-1,-1,-1],"split_conditions":[9.070833E1,3.1053443E0,1.040625E2,5.7318184E1,2.098255E2,6.95E1,5E-1,1.29375E1,2.1508077E-1,3.2035124E-3,4.8333336E1,2.723848E1,9.686381E1,2.0833334E-2,2.9286766E1,4.9839287E1,2.0563778E1,7.5865276E-2,2.8793028E-1,1.7249999E0,1.420856E-1,1.8594037E-1,-3.0072567E-1,4.4552145E0,5E-1,1.2535715E2,1.5708334E1,3.0504365E-2,2.3391984E-1,7.0605785E-2,1.56E2,-4.6057242E-1,-1.8511048E-2,1.4585714E1,3.3401604E1,2.7970238E1,1.8029091E2,3.7244904E1,1.6783334E2,3.4278103E1,-4.7785032E-1,1.974028E-2,-3.8750097E-1,1.7132278E-1,-1.03462584E-1,-1.2963657E-1,1.9263977E-1,-2.3986223E-1,1.6238657E-1,-5.471585E-2,1.171176E-1,-2.4518926E-1,8.173538E-2,2.9491085E-1,-1.9951852E-3,-1.6339049E-1,1.4621681E-1],"split_indices":[13,16,13,17,27,1,46,19,0,0,25,4,12,0,34,32,32,0,0,26,0,0,0,22,45,20,19,0,0,0,30,0,0,29,25,33,20,25,20,34,0,0,0,0,0,0,0,0,0,0,0,0,0,0,0,0,0],"split_type":[0,0,0,0,0,0,0,0,0,0,0,0,0,0,0,0,0,0,0,0,0,0,0,0,0,0,0,0,0,0,0,0,0,0,0,0,0,0,0,0,0,0,0,0,0,0,0,0,0,0,0,0,0,0,0,0,0],"sum_hessian":[2.2512042E2,2.70083E1,1.9811212E2,1.5126808E1,1.1881493E1,1.1122822E1,1.869893E2,1.1446312E1,3.680497E0,1.6547925E0,1.02267E1,6.6665077E0,4.456314E0,1.5285904E2,3.4130276E1,3.4912488E0,7.955063E0,1.6917388E0,8.534961E0,5.6493816E0,1.0171263E0,3.4271417E0,1.0291724E0,4.9535988E1,1.03323044E2,2.6226526E1,7.903747E0,1.2866523E0,2.2045965E0,1.6781526E0,6.2769103E0,4.6233926E0,1.0259888E0,2.4233316E1,2.5302673E1,3.833821E1,6.498483E1,5.1116166E0,2.111491E1,5.048782E0,2.8549652E0,1.3726846E0,4.9042253E0,5.5310764E0,1.870224E1,2.1472213E0,2.315545E1,3.3671745E1,4.666464E0,4.729108E1,1.7693752E1,2.680826E0,2.4307907E0,1.6326368E1,4.788542E0,1.0282302E0,4.0205517E0],"tree_param":{"num_deleted":"0","num_feature":"50","num_nodes":"57","size_leaf_vector":"0"}},{"base_weights":[-8.374884E-3,4.159824E-1,-4.592144E-2,-7.989379E-1,7.956358E-1,-8.80203E-1,-2.4981357E-2,8.557801E-1,4.8441857E-2,3.5839266E-1,-7.6072074E-2,9.232766E-1,1.5000974E-1,4.7681582E-1,-5.809083E-1,-8.8526815E-1,-4.6093535E-2,-2.1327482E-1,6.342018E-1,-2.6546386E-1,-9.567495E-1,5.086174E-1,-8.565128E-2,3.9809328E-1,-7.743133E-1,7.1827316E-1,-3.2932854E-1,-5.1036733E-1,7.541997E-1,4.3166572E-1,-1.3378844E-1],"categories":[],"categories_nodes":[],"categories_segments":[],"categories_sizes":[],"default_left":[1,1,1,0,1,0,1,1,0,1,1,0,0,1,0,1,1,1,1,0,0,1,1,0,0,0,0,0,0,0,0],"id":21,"left_children":[1,3,5,-1,7,-1,9,11,-1,13,15,-1,-1,17,-1,19,21,23,25,-1,-1,27,29,-1,-1,-1,-1,-1,-1,-1,-1],"loss_changes":[3.3665104E0,8.558513E0,3.3656697E0,0E0,5.691967E-1,0E0,3.752585E0,4.5772552E-1,0E0,2.7843337E0,4.05049E0,0E0,0E0,2.3689995E0,0E0,1.051712E-2,3.635299E0,1.8750004E0,1.6135364E0,0E0,0E0,3.1475742E0,3.8838236E0,0E0,0E0,0E0,0E0,0E0,0E0,0E0,0E0],"parents":[2147483647,0,0,1,1,2,2,4,4,6,6,7,7,9,9,10,10,13,13,15,15,16,16,17,17,18,18,21,21,22,22],"right_children":[2,4,6,-1,8,-1,10,12,-1,14,16,-1,-1,18,-1,20,22,24,26,-1,-1,28,30,-1,-1,-1,-1,-1,-1,-1,-1],"split_conditions":[1.2685484E1,8.358032E0,1.1579477E1,-2.3968138E-1,5.5E0,-2.640609E-1,3.7208333E0,2.9775E2,1.4532558E-2,1.976542E0,2.0411655E1,2.76983E-1,4.5002922E-2,8.383333E0,-1.7427249E-1,3.6517754E1,2.903775E1,5.5124998E-2,3.188333E2,-7.963916E-2,-2.8702486E-1,1.69E2,5.115E1,1.1942799E-1,-2.32294E-1,2.1548195E-1,-9.8798566E-2,-1.531102E-1,2.2625992E-1,1.2949972E-1,-4.013653E-2],"split_indices":[34,33,33,0,26,0,22,11,0,7,34,0,0,6,0,5,32,8,11,0,0,30,31,0,0,0,0,0,0,0,0],"split_type":[0,0,0,0,0,0,0,0,0,0,0,0,0,0,0,0,0,0,0,0,0,0,0,0,0,0,0,0,0,0,0],"sum_hessian":[2.090907E2,1.617696E1,1.9291374E2,3.588642E0,1.2588319E1,3.7187636E0,1.8919498E2,1.1516027E1,1.0722917E0,2.1540998E1,1.6765398E2,1.022954E1,1.2864866E0,1.9566507E1,1.9744923E0,4.97004E0,1.6268393E2,3.5677745E0,1.5998733E1,1.0013379E0,3.9687018E0,1.003982E1,1.5264412E2,1.8462913E0,1.7214832E0,1.4948928E1,1.049805E0,1.7403718E0,8.299447E0,1.2316339E1,1.4032777E2],"tree_param":{"num_deleted":"0","num_feature":"50","num_nodes":"31","size_leaf_vector":"0"}},{"base_weights":[-6.868974E-3,1.1769603E-1,-1.2019893E-1,-1.18074894E-1,3.5638645E-1,-7.101747E-1,-2.1862242E-2,-3.0509916E-1,2.7277604E-1,-6.9153154E-1,4.614112E-1,6.1335765E-2,-1.0776337E0,-1.5070453E-1,4.2359668E-1,4.6852267E-1,-4.913551E-1,-7.1226776E-1,4.3876547E-1,3.4040725E-1,-1.0551766E0,5.391138E-1,-3.8013697E-1,6.244239E-1,-7.3355126E-1,3.179408E-1,-1.3569322E0,2.7959073E-1,-4.3950874E-1,6.8599725E-1,-3.0188741E-2,7.599704E-1,-6.23633E-1,-6.8555236E-1,3.572796E-1,-2.9902598E-1,6.149663E-1,-1.6792352E-1,-1.3337823E0,-5.838577E-1,5.9135866E-1,5.603012E-1,-9.0108675E-1,-1.2788548E-1,-1.5048459E0,4.7366893E-1,-5.301475E-1,3.7747464E-1,-6.169838E-1,7.6776814E-1,-3.9614283E-2,3.4541273E-1,-7.380879E-1,1.1911042E-1,8.786994E-1,-8.308119E-1,5.614823E-1,6.947061E-1,-4.1157255E-1,1.8666196E-1,-5.749095E-1,7.4157137E-1,1.2767049E-4,7.0214814E-1,2.601885E-2,-2.6551503E-1,-1.0771828E0,-3.176637E-1,6.1016744E-1,-9.4458514E-1,3.9154965E-1,-6.0932356E-1,8.321607E-1,4.9448663E-1,-7.30781E-1,8.718026E-1,2.7210125E-1,-4.6007818E-1,5.953785E-1],"categories":[],"categories_nodes":[],"categories_segments":[],"categories_sizes":[],"default_left":[1,1,1,1,1,1,1,1,1,1,1,1,1,1,1,1,1,0,1,0,1,1,1,0,0,0,1,1,1,1,1,1,0,1,1,1,1,0,0,0,1,0,1,0,0,1,1,1,1,1,0,1,0,0,0,0,0,0,0,0,0,0,0,0,0,0,0,0,0,0,0,0,0,0,0,0,0,0,0],"id":22,"left_children":[1,3,5,7,9,11,13,15,17,19,21,23,25,27,29,31,33,-1,35,-1,37,39,41,-1,-1,-1,43,45,47,49,51,53,-1,55,57,59,61,-1,-1,-1,63,-1,65,-1,-1,67,69,71,73,75,-1,77,-1,-1,-1,-1,-1,-1,-1,-1,-1,-1,-1,-1,-1,-1,-1,-1,-1,-1,-1,-1,-1,-1,-1,-1,-1,-1,-1],"loss_changes":[2.8643374E0,5.4832635E0,6.14647E0,3.6937184E0,5.634286E0,4.3589153E0,5.348055E0,5.111867E0,3.012555E0,2.1602542E0,3.1145134E0,3.068139E0,4.4504166E0,9.089221E0,2.511466E0,2.7293925E0,4.8252964E0,0E0,2.1014779E0,0E0,7.135911E-1,2.759388E0,2.6348538E0,0E0,0E0,0E0,1.403925E0,4.901039E0,6.5492525E0,8.1931543E-1,2.5473878E0,3.552127E-1,0E0,4.6255436E0,1.7991943E0,5.785017E-1,9.5223856E-1,0E0,0E0,0E0,2.4755106E0,0E0,7.0034504E-2,0E0,0E0,2.8289862E0,2.7353148E0,4.2736726E0,4.935975E0,3.8149786E-1,0E0,1.5452619E0,0E0,0E0,0E0,0E0,0E0,0E0,0E0,0E0,0E0,0E0,0E0,0E0,0E0,0E0,0E0,0E0,0E0,0E0,0E0,0E0,0E0,0E0,0E0,0E0,0E0,0E0,0E0],"parents":[2147483647,0,0,1,1,2,2,3,3,4,4,5,5,6,6,7,7,8,8,9,9,10,10,11,11,12,12,13,13,14,14,15,15,16,16,18,18,20,20,21,21,22,22,26,26,27,27,28,28,29,29,30,30,31,31,33,33,34,34,35,35,36,36,40,40,42,42,45,45,46,46,47,47,48,48,49,49,51,51],"right_children":[2,4,6,8,10,12,14,16,18,20,22,24,26,28,30,32,34,-1,36,-1,38,40,42,-1,-1,-1,44,46,48,50,52,54,-1,56,58,60,62,-1,-1,-1,64,-1,66,-1,-1,68,70,72,74,76,-1,78,-1,-1,-1,-1,-1,-1,-1,-1,-1,-1,-1,-1,-1,-1,-1,-1,-1,-1,-1,-1,-1,-1,-1,-1,-1,-1,-1],"split_conditions":[3.6670937E1,3.0162501E0,1.11E-2,1.9608511E1,3.8666664E1,9.501055E1,4.7225E0,9.957703E1,9.775E-1,9.523958E1,4.8414288E0,1.0820108E2,1.2118627E1,1.0011111E1,6.933738E-2,5.9623924E1,8.8125E0,-2.1368034E-1,1.2565E2,1.0212218E-1,5.7262497E0,8.32619E1,3.5947975E1,1.8732718E-1,-2.2006539E-1,9.538224E-2,3.125E1,1.345E2,1.39E1,8.3675E2,-2.9722223E0,4.6833336E1,-1.8708992E-1,1.9925E1,3.811111E1,3.08125E0,6.579167E1,-5.037706E-2,-4.001347E-1,-1.7515732E-1,2.09995E0,1.6809036E-1,1.5875001E0,-3.8365643E-2,-4.5145378E-1,3.675126E1,4.4674997E0,1.60625E1,2.4416666E0,1.0764482E2,-1.1884285E-2,3.6839046E1,-2.2142638E-1,3.5733126E-2,2.6360983E-1,-2.4924359E-1,1.684447E-1,2.0841183E-1,-1.2347177E-1,5.599859E-2,-1.7247286E-1,2.2247142E-1,3.8301147E-5,2.1064445E-1,7.8056552E-3,-7.9654515E-2,-3.2315484E-1,-9.529912E-2,1.8305025E-1,-2.8337556E-1,1.174649E-1,-1.8279707E-1,2.4964823E-1,1.4834599E-1,-2.1923432E-1,2.615408E-1,8.163038E-2,-1.3802347E-1,1.7861356E-1],"split_indices":[5,16,8,4,24,12,22,2,18,2,22,2,34,35,8,3,0,0,20,0,6,11,5,0,0,0,28,25,17,25,15,25,0,6,14,9,3,0,0,0,7,0,18,0,0,5,22,19,23,2,0,5,0,0,0,0,0,0,0,0,0,0,0,0,0,0,0,0,0,0,0,0,0,0,0,0,0,0,0],"split_type":[0,0,0,0,0,0,0,0,0,0,0,0,0,0,0,0,0,0,0,0,0,0,0,0,0,0,0,0,0,0,0,0,0,0,0,0,0,0,0,0,0,0,0,0,0,0,0,0,0,0,0,0,0,0,0,0,0,0,0,0,0,0,0,0,0,0,0,0,0,0,0,0,0,0,0,0,0,0,0],"sum_hessian":[2.0089854E2,9.5687004E1,1.0521153E2,4.8392113E1,4.729489E1,1.4142292E1,9.1069244E1,3.287882E1,1.5513292E1,3.7995179E0,4.3495373E1,4.831417E0,9.310875E0,7.115144E1,1.9917797E1,6.085784E0,2.6793036E1,1.7625592E0,1.3750733E1,1.0066854E0,2.7928326E0,4.0147785E1,3.347586E0,2.953584E0,1.877833E0,1.5295908E0,7.781284E0,2.8588606E1,4.256284E1,1.2295959E1,7.6218376E0,5.043937E0,1.0418468E0,2.1959993E1,4.833043E0,2.516504E0,1.123423E1,1.0504087E0,1.7424238E0,1.3324361E0,3.881535E1,1.1664068E0,2.1811793E0,1.0361642E0,6.7451196E0,2.3396067E1,5.192539E0,7.394821E0,3.516802E1,1.0998423E1,1.297537E0,5.3142366E0,2.307601E0,1.101518E0,3.9424193E0,1.996783E1,1.9921622E0,3.4259377E0,1.4071054E0,1.0287722E0,1.4877318E0,9.145003E0,2.0892262E0,3.225279E1,6.5625625E0,1.0172982E0,1.1638811E0,3.2466714E0,2.0149395E1,3.5648055E0,1.6277337E0,2.225265E0,5.169556E0,2.9555452E0,3.221247E1,8.463243E0,2.5351796E0,1.0595081E0,4.2547283E0],"tree_param":{"num_deleted":"0","num_feature":"50","num_nodes":"79","size_leaf_vector":"0"}},{"base_weights":[-7.904453E-3,-4.399289E-2,4.0077254E-1,-9.35139E-2,3.068014E-1,-2.1927415E-1,6.200651E-1,1.5955645E-1,-1.7660832E-1,4.9810314E-1,-2.6401544E-1,-5.910111E-1,5.336159E-1,-1.0822732E-1,7.41024E-1,4.5660248E-1,-2.4112865E-1,-9.749744E-1,-9.367137E-2,-4.6217537E-1,6.2705123E-1,-8.860841E-1,3.60272E-1,-8.4920734E-1,-1.9347884E-2,8.272045E-1,8.071751E-2,-1.8467884E-1,6.683369E-1,-7.5617266E-1,1.5899497E-1,-1.1654323E0,-4.251328E-1,1.4018974E-1,-2.840369E-1,2.1214184E-1,8.0145967E-1,-1.5367682E-1,6.2673575E-1,2.1224664E-1,8.904306E-1,-7.36145E-1,3.196868E-1,7.5931704E-1,-3.48905E-1,2.4658349E-1,-9.533215E-1,4.638295E-1,-6.317526E-1,-7.34675E-1,2.620809E-1,-4.8532814E-2,6.050194E-1,-1.4801082E-1,-8.9287215E-1,5.148062E-1,-6.0690933E-1,8.6422586E-1,2.0746277E-1],"categories":[],"categories_nodes":[],"categories_segments":[],"categories_sizes":[],"default_left":[1,1,1,1,1,1,1,1,1,1,1,1,0,0,1,1,1,1,1,0,1,0,1,0,0,1,0,1,1,1,1,0,1,1,1,1,1,0,0,0,0,0,0,0,0,0,0,0,0,0,0,0,0,0,0,0,0,0,0],"id":23,"left_children":[1,3,5,7,9,11,13,15,17,19,21,23,-1,-1,25,27,29,31,33,-1,35,-1,37,-1,-1,39,-1,41,43,45,47,-1,49,51,53,55,57,-1,-1,-1,-1,-1,-1,-1,-1,-1,-1,-1,-1,-1,-1,-1,-1,-1,-1,-1,-1,-1,-1],"loss_changes":[2.7260926E0,2.9756796E0,2.1755085E0,3.170375E0,2.448619E0,1.618961E0,1.07936E0,4.5687213E0,7.388438E0,2.300671E0,2.641524E0,5.138458E-1,0E0,0E0,4.9397993E-1,3.0913343E0,3.541697E0,6.066685E-1,4.644831E0,0E0,8.967061E-1,0E0,6.024181E-1,0E0,0E0,1.4571095E-1,0E0,1.9623272E0,1.8057661E0,1.7044368E0,2.7444615E0,0E0,1.1033957E0,4.159954E0,4.617654E0,1.7310693E0,1.942277E-1,0E0,0E0,0E0,0E0,0E0,0E0,0E0,0E0,0E0,0E0,0E0,0E0,0E0,0E0,0E0,0E0,0E0,0E0,0E0,0E0,0E0,0E0],"parents":[2147483647,0,0,1,1,2,2,3,3,4,4,5,5,6,6,7,7,8,8,9,9,10,10,11,11,14,14,15,15,16,16,17,17,18,18,20,20,22,22,25,25,27,27,28,28,29,29,30,30,32,32,33,33,34,34,35,35,36,36],"right_children":[2,4,6,8,10,12,14,16,18,20,22,24,-1,-1,26,28,30,32,34,-1,36,-1,38,-1,-1,40,-1,42,44,46,48,-1,50,52,54,56,58,-1,-1,-1,-1,-1,-1,-1,-1,-1,-1,-1,-1,-1,-1,-1,-1,-1,-1,-1,-1,-1,-1],"split_conditions":[5.7775E1,1.4276389E2,1.565E1,1.7625E2,5.7499997E-2,1.525E0,8.291666E0,1.77066E1,1.979E2,2.9487777E0,6.1977272E1,1.710893E2,1.6008477E-1,-3.2468196E-2,3.0033543E0,4.211E1,3.667913E1,3.6950002E0,1.3678888E2,-1.3865262E-1,1.428125E1,-2.6582524E-1,1.72E1,-2.547622E-1,-5.8043655E-3,1.61E0,2.4215255E-2,1.3954608E-1,2.8286667E2,4.7119743E1,1.3816667E0,-3.496297E-1,1.2775E2,1.36225E2,3.800575E0,1.0416667E-1,1.24125E1,-4.610305E-2,1.8802074E-1,6.3673995E-2,2.671292E-1,-2.2084351E-1,9.590604E-2,2.2779512E-1,-1.046715E-1,7.397505E-2,-2.8599647E-1,1.3914885E-1,-1.895258E-1,-2.2040251E-1,7.862428E-2,-1.45598445E-2,1.8150583E-1,-4.4403248E-2,-2.6786166E-1,1.5444186E-1,-1.820728E-1,2.5926778E-1,6.2238835E-2],"split_indices":[17,21,10,27,8,26,6,4,27,9,3,13,0,0,18,28,5,9,21,0,10,0,19,0,0,18,0,8,13,3,7,0,25,21,23,0,6,0,0,0,0,0,0,0,0,0,0,0,0,0,0,0,0,0,0,0,0,0,0],"split_type":[0,0,0,0,0,0,0,0,0,0,0,0,0,0,0,0,0,0,0,0,0,0,0,0,0,0,0,0,0,0,0,0,0,0,0,0,0,0,0,0,0,0,0,0,0,0,0,0,0,0,0,0,0,0,0,0,0,0,0],"sum_hessian":[1.8264302E2,